{"value_mean_std.running_mean": [-7.814309328615529], "value_mean_std.running_var": [64.55668182696434], "value_mean_std.count": 19660801.0, "running_mean_std.running_mean": [-0.19542297462119396, -1.2570755550021562, 1.6684140675806995, -2.361683725877193, -1.581691619987071, 1.274249410944045, 0.046259068541291914, 0.18972367645216404, -0.2222919493296647, -0.1617162014639346, -0.01933366287142516, -0.010577549914464178, 0.3746822419340794, 0.0091815281733914, 1.57080860232234, 0.7140712975254652, 0.15845653098933046, 0.09439641060328861, -0.6410215550257683, 0.13757808590457432, 0.0025999298910538474, 0.0218807270531113, -0.06468132847378834, -0.18447553435218103, 0.04309472410075314, 0.49989578248130473, 0.0, 1.5996665273051922], "running_mean_std.running_var": [0.0068784721506929755, 0.05524321246847843, 0.08083476595932575, 0.10321217525678497, 0.022601508840045643, 0.02744575434636254, 0.04372452793117404, 0.07549681654831804, 0.17838873289540033, 0.35637742421636937, 0.30114996891874496, 0.40769069414912856, 0.02772153888270363, 0.0021380728227239345, 0.007205224077544012, 0.0031977356278511332, 0.022043949353414968, 0.01396868961212896, 0.005757565714875151, 0.041267438681879466, 0.016699373928033622, 0.013780529225963128, 0.2621049235159561, 0.2721396113408288, 0.34841138529828075, 5.220270287952614e-05, 1.017252500686389e-07, 0.000533615743812745], "running_mean_std.count": 9830401.0, "a2c_network.sigma": [-1.7732460498809814, -1.508798360824585, -1.5108145475387573, -0.9220761656761169, -0.5529866814613342, -1.1090795993804932], "a2c_network.actor_mlp.0.weight": [[0.00035778756137005985, -0.32891353964805603, 0.25012046098709106, -0.10019588470458984, 0.14840686321258545, 0.03668920695781708, -0.06605004519224167, 0.08553045243024826, 0.048632021993398666, 0.16307058930397034, 0.030286377295851707, -0.041527342051267624, -0.01335037313401699, -0.014991582371294498, 0.17317543923854828, 0.17790600657463074, 0.13578371703624725, -0.0864310935139656, 0.08596320450305939, 0.01067849900573492, 0.1080271303653717, -0.09503761678934097, -0.19042587280273438, -0.088497593998909, -0.1725766956806183, 0.2416345328092575, 0.05443280562758446, 0.16511262953281403], [0.08092592656612396, -0.08853130042552948, 0.24262304604053497, -0.12288622558116913, 0.025923680514097214, -0.13254088163375854, 0.09286615252494812, -0.050799936056137085, 0.02843930386006832, -0.041694629937410355, 0.12132851034402847, -0.06948558986186981, -0.19000355899333954, -0.044030241668224335, 0.2126893699169159, 0.06082407385110855, 0.18700093030929565, -0.17171528935432434, -0.228007510304451, -0.1203564703464508, -0.07179295271635056, 0.09049773216247559, 0.022193409502506256, 0.14924736320972443, -0.13229823112487793, -0.03295617923140526, 0.10026983916759491, 0.019752103835344315], [0.08394419401884079, -0.05916394665837288, 0.21529768407344818, -0.17706838250160217, -0.12687288224697113, 0.06819048523902893, 0.04546726122498512, 0.01833166554570198, 0.048924170434474945, 0.0946495309472084, -0.08887138962745667, -0.11348126083612442, 0.1195385530591011, -0.09410027414560318, -0.13967567682266235, -0.14995765686035156, -0.14782626926898956, 0.0011872941395267844, -0.06237698718905449, -0.055052634328603745, 0.031013594940304756, -0.10523000359535217, -0.1862938106060028, -0.1502915322780609, -0.1269892305135727, -0.04611574858427048, 0.18890832364559174, 0.11051221191883087], [0.04166623577475548, -0.17213866114616394, 0.012352583929896355, 0.008305826224386692, 0.014389448799192905, -0.09924542158842087, 0.013828805647790432, 0.031729210168123245, 0.01646740920841694, -0.20255930721759796, -0.11846906691789627, -0.15473882853984833, -0.26549944281578064, -0.07115905731916428, -0.14718979597091675, -0.22075246274471283, -0.007680847309529781, -0.005279972217977047, 0.24121154844760895, 0.12450290471315384, -0.12496387958526611, 0.07120101153850555, -0.16940586268901825, -0.07356569916009903, -0.10262393206357956, -0.3504197597503662, 0.05406982824206352, -0.20468741655349731], [0.08906613290309906, -0.25718581676483154, 0.19165094196796417, -0.06277509778738022, -0.017726905643939972, -0.026982782408595085, 0.0726919174194336, 0.1346808224916458, 0.19170349836349487, -0.20844264328479767, 0.06728734821081161, -0.057200707495212555, -0.07964585721492767, -0.08255938440561295, 0.26094791293144226, -0.1562008559703827, 0.13482604920864105, 0.04443381354212761, 0.050029683858156204, -0.11092839390039444, 0.15069139003753662, 0.07014425098896027, 0.035328179597854614, -0.22702328860759735, 0.04476295784115791, 0.0294837336987257, -0.08657734841108322, 0.2203742265701294], [0.0004195172805339098, -0.24010752141475677, -0.21979817748069763, 0.21179023385047913, 0.05809454619884491, -0.03012714348733425, -0.08187805861234665, -0.09844854474067688, -0.08864862471818924, 0.054082635790109634, 0.2302563637495041, -0.1516055017709732, 0.04038005322217941, 0.1569691300392151, 0.22762402892112732, -0.0923565924167633, 0.09337779879570007, 0.10641194880008698, 0.04718995839357376, -0.05913929268717766, -0.020496316254138947, -0.04509066417813301, 0.049158670008182526, -0.08067619800567627, 0.1166282519698143, 0.1808960884809494, -0.018708741292357445, -0.024344319477677345], [0.01983553171157837, 0.05291995033621788, 0.059219587594270706, 0.010597548447549343, -0.10922672599554062, -0.09254942834377289, 0.034328997135162354, 0.02563960663974285, 0.07351852208375931, -0.25413551926612854, -0.10169336944818497, -0.2244349718093872, -0.044018298387527466, 0.052894625812768936, 0.08733049780130386, 0.07418961077928543, -0.149201437830925, -0.09482499212026596, -0.061677463352680206, 0.11327046155929565, -0.08211811631917953, -0.08182105422019958, 0.09800245612859726, -0.13298553228378296, -0.09964361786842346, 0.18292614817619324, -0.08593055605888367, 0.008052386343479156], [-0.28793105483055115, 0.22781282663345337, 0.23334547877311707, 0.0015029116766527295, -0.1542547047138214, -0.19088433682918549, -0.15933135151863098, 0.14932481944561005, 0.060501404106616974, 0.1421879380941391, 0.06833426654338837, 0.09681353718042374, 0.01250975951552391, -0.24890397489070892, -0.3657360374927521, -0.16974133253097534, 0.009310607798397541, -0.10922486335039139, -0.06529554724693298, -0.07213383167982101, -0.0357813723385334, -0.10268069058656693, -0.15324342250823975, 0.024246854707598686, -0.11444207280874252, 0.18292281031608582, -0.06062715873122215, -0.07214277982711792], [0.052566565573215485, -0.08408678323030472, -0.10349417477846146, -0.14227767288684845, 0.1302502602338791, -0.033419374376535416, 0.05249118059873581, 0.1628844141960144, 0.11434654891490936, -0.16195160150527954, 0.357721209526062, -0.16252298653125763, 0.08745557069778442, 0.3638491630554199, -0.021817302331328392, -0.058777011930942535, -0.07696940004825592, -0.11680278927087784, 0.060482531785964966, -0.1397278606891632, 0.08484639972448349, 0.08905072510242462, 0.2859322130680084, -0.09125389158725739, -0.08110594749450684, 0.01887141540646553, 0.1043989434838295, -0.2118062674999237], [-0.13940462470054626, -0.14894352853298187, 0.06315683573484421, -0.11100274324417114, -0.1057174801826477, -0.06751153618097305, -0.19421161711215973, 0.15085969865322113, 0.14730453491210938, 0.02434130758047104, 0.010239147581160069, -0.08064004778862, -0.19026339054107666, -0.290720134973526, 0.08464190363883972, -0.07888791710138321, -0.1504998803138733, 0.010835394263267517, -0.09242621809244156, -0.05257054790854454, 0.015351397916674614, -0.02876102551817894, -0.048162419348955154, -0.06078290939331055, -0.1515962779521942, 0.23609274625778198, -0.07562825828790665, 0.12807819247245789], [-0.06792470812797546, 0.23980498313903809, 0.13948746025562286, -0.06369771808385849, -0.20377755165100098, 0.19836784899234772, 0.11116025596857071, 0.08625110983848572, 0.0759185329079628, 0.17438654601573944, -0.054140448570251465, -0.042979199439287186, -0.0257408507168293, -0.1415969282388687, -0.022207381203770638, 0.1400900036096573, -0.1498797982931137, -0.09069027006626129, -0.1422831416130066, -0.14253194630146027, -0.1995873898267746, -0.0425160676240921, 0.042965590953826904, -0.026206079870462418, -0.06322655081748962, -0.09319446980953217, 0.0940139889717102, -0.08170363306999207], [-0.03979486599564552, -0.01567447930574417, -0.0344652496278286, 0.02902229316532612, -0.0290310587733984, -0.05912303179502487, -0.06490813195705414, -0.1978617161512375, -0.16188104450702667, -0.08772224187850952, 0.11950526386499405, -0.08176150918006897, -0.20891056954860687, 0.10759662836790085, 0.1608198881149292, 0.0879964679479599, 0.13112828135490417, 0.11423875391483307, -0.19514723122119904, 0.019729115068912506, 0.15088456869125366, 0.006343891844153404, -0.1806039810180664, 0.1781664341688156, -0.07965951412916183, -0.059915941208601, -0.17037789523601532, 0.05602400749921799], [0.11627843976020813, -0.03270173445343971, 0.12226918339729309, -0.16601082682609558, -0.18707430362701416, -0.017150118947029114, 0.17617939412593842, 0.05672282725572586, -0.05753825604915619, -0.06081907078623772, -0.17704953253269196, -0.07821956276893616, -0.04747346416115761, 0.20307476818561554, 0.2244328111410141, -0.20195570588111877, 0.12435220927000046, -0.14906039834022522, 0.03642277419567108, 0.12198644876480103, 0.0026128506287932396, 0.11722840368747711, -0.21743276715278625, -0.05732718110084534, 0.06616058945655823, 0.027905531227588654, -0.03868470713496208, -0.009280731901526451], [0.17330455780029297, 0.16831110417842865, 0.006509741768240929, -0.11987932026386261, -0.16615603864192963, -0.05601494759321213, 0.06400471925735474, -0.06619130820035934, -0.08305118978023529, 0.19882921874523163, -0.036192264407873154, -0.08188846707344055, 0.0016609255690127611, -0.11842278391122818, -0.29518723487854004, -0.08904580771923065, -0.029871761798858643, 0.10598563402891159, -0.025787193328142166, -0.046007901430130005, 0.17527997493743896, 0.024832332506775856, 0.05788003280758858, -0.04726642370223999, -0.016349054872989655, -0.006578132510185242, -0.12591417133808136, -0.2001747339963913], [0.06271199882030487, -0.047941502183675766, -0.12813642621040344, 0.014043940231204033, 0.12419135868549347, 0.021272310987114906, 0.015543249435722828, -0.1763526350259781, -0.04322102293372154, 0.0753420889377594, 0.09280501306056976, -0.00847727432847023, -0.09054272621870041, 0.24762527644634247, -0.11953377723693848, 0.1102871224284172, -0.04863791912794113, 0.032960642129182816, -0.03157447651028633, 0.02741020917892456, 0.031555213034152985, 0.051953841000795364, -0.013099338859319687, 0.18137714266777039, 0.1708364188671112, -0.06582017242908478, -0.13786426186561584, 0.17755691707134247], [0.19470225274562836, -0.22350551187992096, 0.06645022332668304, -0.18801932036876678, -0.1689867526292801, 0.045514293015003204, 0.0547398179769516, -0.0035663123708218336, -0.02800632268190384, 0.18184155225753784, 0.007302780169993639, -0.09619402885437012, -0.06702125817537308, 0.15448538959026337, 0.10873129218816757, -0.13494332134723663, 0.06877598166465759, -0.1229875460267067, -0.19246841967105865, -0.11966987699270248, 0.2096950262784958, 0.15023541450500488, 0.12581542134284973, 0.10949660837650299, 0.1232210025191307, 0.046853430569171906, -0.10398329049348831, 0.16670243442058563], [-0.1195320338010788, -0.21570834517478943, -0.06147557124495506, 0.06159711629152298, 0.1391979306936264, -0.04640032351016998, -0.11532338708639145, 0.012660341337323189, -0.08105158060789108, -0.16882038116455078, 0.07808765023946762, -0.03715367987751961, 0.13977771997451782, 0.17787837982177734, 0.15593476593494415, 0.06630244851112366, 0.048122767359018326, -0.0010529019637033343, -0.06630884855985641, -0.011212646029889584, 0.07645763456821442, 0.1403437852859497, -0.035743147134780884, -0.07822909951210022, -0.02501724474132061, 0.012740785256028175, 0.032134294509887695, 0.2458047717809677], [0.09952154010534286, -0.038331255316734314, -0.07187695801258087, -0.09434714168310165, -0.035394228994846344, -0.0023911173921078444, 0.00041329042869620025, -0.1639159917831421, 0.060198768973350525, -0.18077705800533295, -0.06637290865182877, -0.09301336854696274, 0.07203849405050278, -0.1972079575061798, 0.20295140147209167, 0.008120713755488396, -0.026602067053318024, 0.05457322672009468, -0.1447204053401947, 0.1327647566795349, 0.14566950500011444, -0.1634025275707245, 0.13553845882415771, 0.004817139357328415, -0.025678709149360657, 0.14607243239879608, 0.05169249325990677, 0.028167424723505974], [-0.04327482730150223, 0.1347290724515915, 0.1983577311038971, -0.006600300781428814, -0.17336243391036987, 0.0023392238654196262, -0.13162578642368317, 0.13386502861976624, -0.09055647999048233, -0.04548659920692444, -0.05069846287369728, 0.05705234408378601, 0.11258495599031448, -0.0015247499104589224, 0.10434333980083466, 0.16564621031284332, 0.13219641149044037, -0.11690369248390198, -0.1229679137468338, 0.06913801282644272, -0.0322720929980278, 0.06574393808841705, -0.010145953856408596, -0.1386725902557373, 0.05860382318496704, 0.11077529191970825, 0.08425741642713547, 0.27004769444465637], [0.20536430180072784, 0.10430037975311279, 0.10680022090673447, -0.11192947626113892, -0.14019006490707397, -0.06198926642537117, -0.12814146280288696, -0.13566768169403076, -0.19425815343856812, -0.1878652572631836, -0.08290943503379822, -0.09901031106710434, -0.19640815258026123, 0.22256889939308167, 0.17438273131847382, -0.061748627573251724, -0.09096020460128784, 0.03214516490697861, -0.17459513247013092, -0.07170701771974564, 0.19655421376228333, -0.08689814805984497, 0.001991829602047801, 0.0873568207025528, -0.05906515195965767, 0.1411522924900055, -0.11006157845258713, 0.08740847557783127], [0.03787053003907204, 0.22081996500492096, 0.1339564472436905, 0.03851853311061859, -0.1461770385503769, 0.030756067484617233, -0.14119726419448853, -0.12087427824735641, -0.019865484908223152, -0.06004513055086136, -0.023787908256053925, -0.05300063639879227, -0.04754931107163429, 0.08218210935592651, -0.40513524413108826, -0.030765971168875694, -0.016307324171066284, -0.06785812973976135, -0.03270740061998367, -0.049452535808086395, 0.07953263074159622, 0.09138067811727524, 0.0399899035692215, 0.010193522088229656, -0.05902062729001045, 0.14506866037845612, 0.06684631109237671, -0.014625689946115017], [0.0019011565018445253, -0.26248568296432495, -0.0291589368134737, 0.22479230165481567, -0.08161098510026932, -0.015846947208046913, -0.12619873881340027, -0.06103350967168808, -0.028034335002303123, -0.12212540209293365, -0.03718327730894089, 0.051963649690151215, -0.18822011351585388, 0.06187247857451439, 0.0426395907998085, -0.08355889469385147, 0.1228790432214737, 0.20637916028499603, -0.02907799556851387, -0.04389265924692154, -0.13786855340003967, -0.09150610864162445, -0.17487642168998718, -0.013270561583340168, 0.08486838638782501, -0.1470843106508255, 0.1650029420852661, 0.14841921627521515], [-0.3012096881866455, -0.07072090357542038, 0.13775916397571564, -0.05582013726234436, -0.0709180012345314, -0.08255134522914886, 0.11003397405147552, -0.11937633901834488, 0.1678425371646881, 0.02722557820379734, 0.022729942575097084, 0.12952344119548798, -0.020405292510986328, -0.23913145065307617, -0.07209727168083191, 0.1931334137916565, -0.1885460913181305, 0.05656922981142998, -0.2030736207962036, 0.08692670613527298, 0.03479248657822609, -0.00027037039399147034, 0.033143576234579086, 0.004239150322973728, 0.11019600927829742, -0.06916837394237518, -0.02775251306593418, 0.16465145349502563], [0.24357196688652039, 0.13277560472488403, -0.00738085713237524, 0.12983767688274384, -0.045784130692481995, 0.013777182437479496, -0.17999085783958435, -0.06244412437081337, 0.17808422446250916, 0.0010172264883294702, -0.12306071817874908, 0.0929989442229271, -0.09722918272018433, 0.2628825902938843, -0.29764261841773987, -0.06264155358076096, -0.23932595551013947, -0.14083139598369598, -0.00841904804110527, 0.1559661626815796, 0.05519697070121765, 0.12664273381233215, 0.03247138112783432, 0.09360527247190475, 0.10825753957033157, 0.2526499032974243, -0.10577784478664398, 0.2690372169017792], [0.10493241995573044, -0.1441851258277893, -0.036087263375520706, -0.1578243225812912, 0.053450021892786026, -0.18515491485595703, 0.053053904324769974, 0.012946752831339836, -0.1393798291683197, 0.08899369835853577, -0.030335968360304832, 0.05844146013259888, 0.04389665648341179, -0.16242946684360504, 0.20675235986709595, 0.17366264760494232, 0.08493820577859879, -0.20884394645690918, -0.14315557479858398, -0.09535007178783417, -0.0473228320479393, 0.08939101547002792, 0.04945593699812889, 0.16903366148471832, -0.050789184868335724, 0.14393764734268188, 0.06723896414041519, -0.07681495696306229], [-0.23452314734458923, -0.11037637293338776, 0.18683888018131256, -0.17668995261192322, -0.15352745354175568, 0.1565830409526825, 0.04779034107923508, 0.13162381947040558, -0.1266058385372162, -0.06853076070547104, 0.11864042282104492, 0.15335208177566528, 0.09254688769578934, -0.04581550508737564, 0.04406559839844704, 0.18859750032424927, -0.16906443238258362, -0.08826210349798203, 0.08274137228727341, -0.16025926172733307, -0.13530346751213074, 0.12266308069229126, 0.07551074773073196, 0.07957994192838669, -0.0784219354391098, 0.08235267549753189, 0.1729627400636673, -0.02782493643462658], [0.07307746261358261, 0.08645282685756683, -0.03589130938053131, 0.10138103365898132, -0.07450715452432632, -0.00027461128775030375, -0.03836527094244957, -0.13959212601184845, -0.14996613562107086, 0.11584865301847458, 0.10716596990823746, -0.15609011054039001, -0.1659533679485321, 0.30940815806388855, 0.05959126725792885, 0.07623974233865738, -0.1338208019733429, -0.09175777435302734, -0.07493074238300323, -0.045353975147008896, -0.05244363099336624, -0.061892688274383545, 0.09622257202863693, 0.0012242966331541538, 0.023522965610027313, 0.006303984206169844, 0.04918298125267029, 0.15298540890216827], [-0.14518868923187256, -0.17404721677303314, 0.13168157637119293, 0.01776263862848282, -0.13527192175388336, 0.19783131778240204, -0.09687834233045578, 0.09621625393629074, 0.14094361662864685, -0.1880231350660324, 0.1314331293106079, -0.1308625340461731, -0.09262587875127792, -0.10805832594633102, -0.09754105657339096, 0.24809560179710388, -0.046158142387866974, 0.10185018181800842, -0.19273772835731506, 0.0817059725522995, -0.030291646718978882, -0.16507749259471893, 0.02663133293390274, 0.06822560727596283, 0.1102597713470459, -0.03900057077407837, -0.09299896657466888, 0.1132369413971901], [0.08723622560501099, 0.13145333528518677, 0.12413357198238373, -0.11547476798295975, 0.05519620329141617, 0.21144765615463257, 0.03254624083638191, 0.12589092552661896, 0.058465197682380676, 0.23938824236392975, -0.1741560995578766, -0.09321052581071854, -0.05054564028978348, -0.01627611368894577, -0.0047438847832381725, -0.034949932247400284, -0.0012715701013803482, -0.13614942133426666, 0.010614491067826748, 0.009555358439683914, -0.0574185736477375, -0.037214189767837524, -0.22611767053604126, 0.07627983391284943, -0.09033580124378204, 0.03218405321240425, 0.040774017572402954, -0.05538776144385338], [0.03145892918109894, -0.21475516259670258, -0.1369922161102295, -0.05801263079047203, 0.039164964109659195, -0.058304063975811005, 0.013591278344392776, -0.05590888857841492, 0.11144926398992538, 0.1130739152431488, 0.1088179275393486, -0.03110065683722496, -0.21214520931243896, 0.1383013129234314, -0.09661499410867691, -0.05321166291832924, 0.023595048114657402, 0.10290098935365677, 0.20202398300170898, 0.17181836068630219, 0.009938154369592667, -0.12026483565568924, 0.23416179418563843, -0.16121582686901093, -0.12285710126161575, 0.09259562194347382, 0.14642538130283356, -0.008738303557038307], [-0.10429844260215759, -0.2746516764163971, -0.15092886984348297, 0.2938717007637024, 0.0741463378071785, 0.003291927743703127, -0.0010466708336025476, -0.003940617199987173, 0.08138048648834229, 0.032236211001873016, 0.12483324110507965, -0.13087064027786255, 0.07414128631353378, 0.022745933383703232, 0.23377341032028198, 0.01916497014462948, 0.13614459335803986, 0.25277701020240784, 0.12549486756324768, -0.023836463689804077, -0.15781763195991516, -0.009411116130650043, 0.012660082429647446, 0.00931142084300518, 0.12454146891832352, -0.02357700653374195, 0.13788709044456482, 0.025794241577386856], [-0.11157691478729248, -0.10328216105699539, 0.018790557980537415, -0.082337886095047, 0.16155147552490234, 0.16865666210651398, 0.15079201757907867, 0.009811234660446644, -2.5961408027797006e-05, 0.20281796157360077, -0.24531865119934082, -0.03064025193452835, -0.07913532853126526, -0.11687362939119339, -0.1651962548494339, 0.14663349092006683, 0.10852698981761932, 0.009859898127615452, 0.041824012994766235, -0.08270832151174545, -0.04557636380195618, 0.05548618361353874, -0.08324221521615982, 0.05832701176404953, -0.10560166835784912, 0.12908004224300385, -0.11420710384845734, 0.08532755076885223], [0.2327035665512085, -0.009580126963555813, -0.06948519498109818, -0.007726849522441626, -0.05371822044253349, -0.014995556324720383, 0.21185614168643951, -0.009174495935440063, -0.1196957379579544, -0.1532905250787735, -0.18264786899089813, -0.14382928609848022, -0.05832283943891525, 0.111641526222229, 0.031585242599248886, -0.03932742774486542, -0.0431622676551342, 0.07898682355880737, 0.01562505029141903, -0.06156012415885925, -0.16965427994728088, -0.07546954602003098, -0.2552809417247772, -0.06677036732435226, -0.10611780732870102, 0.005117000546306372, -0.11377234756946564, -0.1518816351890564], [0.2271638661623001, 0.023990536108613014, 0.2358478158712387, -0.16248615086078644, -0.1361812949180603, -0.0433046780526638, 0.13846264779567719, -0.04437640309333801, -0.07620871067047119, -0.01370446290820837, -0.16899394989013672, -0.04050485044717789, -0.13171057403087616, 0.32592254877090454, 0.056857213377952576, -0.04011150449514389, 0.024804336950182915, -0.11348906904459, 0.02607334777712822, 0.018978256732225418, 0.045611001551151276, -0.10748080164194107, 0.1440630406141281, -0.0380106195807457, -0.09159142524003983, 0.1965990960597992, 0.15403123199939728, 0.26659783720970154], [0.020663434639573097, -0.06133024021983147, 0.017505083233118057, 0.1692131608724594, -0.12248573452234268, 0.004807536024600267, -0.1663922816514969, 0.09824616461992264, -0.019276782870292664, -0.09858102351427078, -0.10931861400604248, 0.10286404192447662, 0.012590714730322361, -0.26771193742752075, 0.2978360950946808, -0.18739739060401917, 0.04273581504821777, 0.06918782740831375, -0.06541086733341217, -0.08908186852931976, 0.007723880931735039, 0.020730329677462578, -0.12935541570186615, -0.003545328974723816, -0.10718782246112823, -0.05305612459778786, -0.06367754936218262, -0.036294031888246536], [-0.14018455147743225, -0.038879845291376114, 0.14652542769908905, -0.20110736787319183, -0.1782323569059372, -0.035083167254924774, -0.023019926622509956, 0.07556363940238953, -0.12909626960754395, 0.1241520419716835, 0.022477738559246063, 0.08210521936416626, -0.21293438971042633, -0.12396705895662308, -0.2227201908826828, -0.10845451056957245, 0.0804046019911766, -0.04959062114357948, 0.06281331926584244, -0.1392686516046524, -0.02931138686835766, -0.11392675340175629, -0.01798187755048275, -0.016224002465605736, -0.03955451026558876, -0.11999738216400146, 0.000624308071564883, 0.22338032722473145], [0.11729584634304047, -0.14433510601520538, 0.0719868615269661, 0.007909930311143398, -0.12133275717496872, 0.16221243143081665, -0.0263189859688282, 0.0337936133146286, -0.06056300550699234, -0.07687805593013763, 0.01990961842238903, 0.06383899599313736, -0.013075067661702633, -0.08309872448444366, 0.1933766007423401, -0.04579510912299156, -0.11801229417324066, -0.12592504918575287, 0.1506720781326294, -0.018871314823627472, -0.03309519216418266, -0.11434991657733917, -0.03180062025785446, -0.13795848190784454, -0.13406631350517273, 0.19144296646118164, 0.16166473925113678, 0.26192429661750793], [-0.15439929068088531, 0.23200839757919312, -0.08151542395353317, 0.036999594420194626, 0.06411802023649216, 0.23644547164440155, 0.07956849783658981, 0.10676741600036621, 0.0014416038757190108, 0.10298110544681549, -0.10560229420661926, 0.06939072161912918, -0.014415639452636242, -0.11471032351255417, -0.356611043214798, 0.046113818883895874, -0.17736272513866425, -0.07043252885341644, -0.1468421369791031, -0.1642507016658783, -0.017926674336194992, 0.08045464009046555, 0.18362006545066833, 0.08385990560054779, -0.10776188969612122, -0.06921837478876114, 0.07168357074260712, 0.2244822382926941], [-0.17457778751850128, 0.09964180737733841, 0.22622156143188477, 0.008029825054109097, -0.13082686066627502, 0.1731119602918625, 0.036288853734731674, 0.08667127043008804, -0.09068484604358673, 0.12675373256206512, -0.1325484961271286, 0.15774017572402954, -0.08002817630767822, 0.1005825474858284, -0.004698495846241713, 0.0530584342777729, -0.04298066720366478, 0.06852298974990845, -0.09458394348621368, -0.21767891943454742, -0.09344197064638138, 0.11172530055046082, -0.04932751879096031, 0.055935416370630264, -0.06026862561702728, 0.21760687232017517, 0.11310402303934097, 0.14311839640140533], [-0.19518686830997467, -0.3003932237625122, -0.011656451039016247, -0.025004595518112183, 0.1273736208677292, -0.2159384936094284, 0.016949374228715897, 0.1432480365037918, 0.11769593507051468, 0.02539893239736557, -0.212379589676857, 0.1710512787103653, -0.06491915881633759, -0.23782670497894287, 0.36465176939964294, -0.05504647269845009, 0.018816621974110603, 0.19905433058738708, -0.06587949395179749, -0.17152591049671173, -0.05974266678094864, 0.036700014024972916, 0.046113453805446625, -0.17863434553146362, 0.011236712336540222, -0.04658102989196777, -0.09290534257888794, -0.13571323454380035], [-0.013102458789944649, -0.010188055224716663, -0.14720283448696136, 0.11952235549688339, 0.09576451778411865, -0.0875486433506012, -0.0768590122461319, 0.07570114731788635, 0.13700959086418152, 0.11227601766586304, -0.1603502482175827, 0.13944680988788605, -0.03873857110738754, -0.03760717809200287, 0.19579459726810455, 0.14150719344615936, -0.11980505287647247, 0.17061981558799744, -0.12174627184867859, 0.058333367109298706, -0.10625990480184555, -0.024352682754397392, -0.023655807599425316, -0.018798023462295532, 0.0500541515648365, 0.015265244990587234, 0.18641561269760132, 0.11022208631038666], [0.23444212973117828, 0.061600830405950546, 0.24657855927944183, -0.028704896569252014, 0.004427735693752766, 0.07876909524202347, -0.09859815984964371, -0.08522666245698929, -0.0364624485373497, -0.11485454440116882, -0.016033055260777473, -0.017317352816462517, -0.014918326400220394, 0.2931920289993286, -0.10584288090467453, 0.18488720059394836, 0.1675148755311966, -0.1655067652463913, -0.15579229593276978, -0.08136497437953949, -0.016262538731098175, -0.06212789937853813, -0.031192591413855553, -0.08719414472579956, -0.0930580347776413, 0.019433723762631416, -0.06836328655481339, 0.26537811756134033], [-0.08734800666570663, -0.16018524765968323, -0.09982674568891525, 0.030784405767917633, 0.142576202750206, 0.061193935573101044, 0.06233111023902893, -0.09084848314523697, -0.030873486772179604, 0.20530226826667786, 0.018524562940001488, 0.058097269386053085, 0.18461430072784424, -0.007944284938275814, 0.1889854520559311, -0.07866571843624115, -0.07627558708190918, 0.02818063274025917, 0.11843942850828171, 0.0022189761511981487, -0.07423269748687744, -0.009224431589245796, 0.22780300676822662, 0.16671855747699738, 0.1379239410161972, -0.17437787353992462, 0.09197220951318741, -0.0242938119918108], [0.1285466104745865, 0.14047130942344666, 0.15453384816646576, -0.25045713782310486, -0.07085755467414856, 0.0793844610452652, 0.015143492259085178, 0.1037641167640686, -0.12267724424600601, 0.015148825012147427, 0.006287324707955122, -0.06100143492221832, 0.1327264904975891, 0.04797733202576637, -0.28169265389442444, 0.11819691210985184, -0.07736515253782272, -0.016741780564188957, -0.09763582795858383, -0.1498551368713379, 0.0008549122139811516, 0.030127335339784622, -0.05790424719452858, 0.12403028458356857, -0.027542324736714363, 0.19248342514038086, 0.04681425169110298, -0.08810991048812866], [0.030187999829649925, 0.06972489506006241, 0.007634969428181648, -0.1444084197282791, 0.15878908336162567, 0.1482907086610794, -0.062347412109375, 0.14262402057647705, -0.007786512840539217, -0.22678719460964203, -0.051731009036302567, 0.05388042330741882, -0.1595228612422943, 0.08312569558620453, -0.24031147360801697, 0.17992457747459412, 0.12695983052253723, 0.058931753039360046, -0.03900844231247902, 0.05042722448706627, -0.07130304723978043, -0.11698977649211884, -0.06476541608572006, -0.055193472653627396, -0.07796894758939743, 0.1730225384235382, 0.12825189530849457, -0.12509725987911224], [0.0441971980035305, 0.08137177675962448, 0.2540307343006134, 0.1391071230173111, 0.15216827392578125, -0.12148529291152954, 0.109624944627285, 0.12285447120666504, -0.17349879443645477, -0.1311507374048233, 0.053970374166965485, 0.07647588849067688, -0.07016501575708389, 0.06953591108322144, -0.06920348852872849, 0.020116597414016724, -0.11363565176725388, 0.0935700535774231, 0.15950535237789154, -0.13808949291706085, -0.0355822890996933, 0.06209702417254448, 0.033317070454359055, 0.1846473067998886, 0.05542838200926781, -0.13798247277736664, 0.16973116993904114, -0.16794243454933167], [-0.06679373979568481, 0.0717264860868454, -0.19356459379196167, 0.051722124218940735, -0.12516826391220093, -0.042536091059446335, 0.0016611891333013773, 0.05150485783815384, -0.16702908277511597, -0.21107932925224304, 0.09706906974315643, 0.1487465351819992, -0.16162322461605072, 0.03686142712831497, -0.21087488532066345, -0.023914631456136703, 0.15158656239509583, 0.16898752748966217, -0.0625198557972908, 0.1211351826786995, 0.06369897723197937, -0.014239409007132053, 0.26112836599349976, -0.07803879678249359, -0.0195870753377676, -0.19970941543579102, 0.027193941175937653, -0.05450187250971794], [0.04230448976159096, -0.17079423367977142, -0.03914935514330864, 0.14935843646526337, -0.1801975667476654, -0.06082262843847275, 0.004452752880752087, -0.08371800184249878, 0.07175658643245697, -0.030989183112978935, 0.14190179109573364, 0.030375637114048004, -0.16666647791862488, 0.19782085716724396, 0.06720085442066193, -0.07639595866203308, -0.10526296496391296, 0.039143506437540054, -0.13648495078086853, 0.06092820316553116, 0.08938366919755936, -0.11238977313041687, -0.1482638120651245, -0.1578102707862854, 0.08742386102676392, 0.167209193110466, 0.011830449104309082, 0.18393456935882568], [-0.056474581360816956, -0.11627767980098724, 0.06800007820129395, 0.03381713852286339, 0.21961134672164917, -0.0066521381959319115, 0.06163124367594719, 0.10069166868925095, 0.17481204867362976, -0.2870423495769501, 0.19409126043319702, -0.19476687908172607, 0.20588353276252747, -0.029806068167090416, -0.2721008360385895, 0.0904538631439209, -0.03324701637029648, -0.2242201417684555, -0.0916774645447731, 0.005374690052121878, 0.07887929677963257, -0.07784854620695114, 0.11028138548135757, -0.03288042172789574, 0.015360234305262566, 0.09642602503299713, -0.12402312457561493, -0.09607645869255066], [-0.12017329782247543, -0.11304769665002823, -0.12047190219163895, -0.01884813979268074, -0.08232199400663376, -0.04394044727087021, -0.04498059302568436, -0.015548544004559517, -0.10971533507108688, 0.04997565969824791, -0.05034666135907173, 0.08135934174060822, 0.05832643806934357, -0.2339349091053009, -0.07293496280908585, 0.011670651845633984, -0.14365531504154205, 0.02466943860054016, -0.0954422876238823, 0.06347058713436127, 0.04291689023375511, 0.10736357420682907, 0.009164871647953987, -0.12369739264249802, 0.04768609628081322, -0.03710240125656128, -0.02597605437040329, 0.03029465861618519], [-0.09862396866083145, -0.013040238991379738, 0.3388237953186035, 0.1177346333861351, 0.02730695717036724, 0.24209916591644287, -0.13840840756893158, 0.034185949712991714, 0.11445222795009613, 0.13828499615192413, -0.1099676638841629, 0.10327187180519104, -0.10466437041759491, -0.01634473167359829, -0.18126924335956573, -0.1442805826663971, -0.2524164319038391, -0.2018260508775711, 0.046393103897571564, 0.11122880131006241, -0.10207977890968323, -0.0659220740199089, 0.028616223484277725, -0.15911538898944855, 0.07607479393482208, 0.25182077288627625, 0.03342372924089432, -0.059497732669115067], [0.11014411598443985, 0.09855722635984421, 0.19976329803466797, -0.1346036195755005, -0.19539180397987366, 0.10425257682800293, 0.032129839062690735, -0.0704341009259224, -0.043446630239486694, -0.1206054836511612, 0.17240428924560547, -0.017521630972623825, 0.1037672907114029, 0.2375754565000534, -0.07644116878509521, 0.07148468494415283, -0.04336101934313774, 0.10931207984685898, -0.2070980966091156, 0.05326477810740471, 0.015718918293714523, 0.005872258450835943, 0.04497980698943138, -0.06386119872331619, -0.020727625116705894, 0.15881837904453278, -0.13125380873680115, -0.06218891218304634], [0.00489503238350153, -0.22948892414569855, 0.04581364989280701, 0.3295099139213562, 0.015118246898055077, 0.17024467885494232, -0.07360886037349701, -0.12238218635320663, -0.11074844747781754, -0.1602141112089157, -0.14245082437992096, -0.10162542015314102, -0.20705699920654297, 0.11738216131925583, 0.29518482089042664, 0.19504620134830475, 0.257229208946228, 0.011854466050863266, 0.056201957166194916, -0.09718941152095795, 0.08295825868844986, -0.07900676131248474, 0.0823855772614479, -0.02367553301155567, -0.032030463218688965, 0.1403699517250061, -0.08676264435052872, 0.23358412086963654], [0.04118303582072258, 0.17824463546276093, -0.0327754020690918, 0.1023792177438736, 0.1696075201034546, 0.05693361908197403, 0.1416233777999878, 0.004105924628674984, 0.11477772146463394, 0.038871172815561295, 0.10444656759500504, 0.12383048981428146, 0.07135693728923798, -0.12047361582517624, -0.10392122715711594, 0.01444941945374012, 0.03921840712428093, 0.024618778377771378, 0.1986161321401596, 0.11988572776317596, -0.1697324961423874, -0.0371769443154335, -0.005214778706431389, -0.09874041378498077, 0.09274941682815552, -0.16115787625312805, -0.09756424278020859, -0.16441026329994202], [-0.034657783806324005, 0.21948599815368652, 0.11202142387628555, 0.1229710504412651, 0.05803367495536804, 0.05579818785190582, 0.023890944197773933, 0.009890478104352951, -0.10731291770935059, -0.07676931470632553, -0.0765475183725357, -0.025343576446175575, 0.0920344814658165, 0.026706703007221222, 0.04920918121933937, 0.12066029757261276, -0.04219970479607582, -0.11909410357475281, -0.13890166580677032, -0.16674359142780304, 0.03585590794682503, 0.0185439083725214, 0.1889399290084839, 0.004794794600456953, -0.005629437975585461, 0.0001923189265653491, -0.0006905416958034039, 0.11784587055444717], [0.04967759549617767, 0.07864952087402344, -0.0279054194688797, 0.0930132269859314, -0.0693717822432518, -0.1345318704843521, 0.06280720233917236, -0.054681938141584396, -0.08804141730070114, 0.19727742671966553, 0.0554620735347271, -0.0386231504380703, -0.027385612949728966, 0.04057742655277252, -0.19951841235160828, 0.00831754133105278, 0.03037373535335064, 0.1377958208322525, 0.03998582810163498, 0.01306089200079441, 0.07445240765810013, 0.11449863761663437, -0.039661210030317307, 0.16843214631080627, 0.03201703727245331, -0.18318377435207367, 0.06580112874507904, -0.1712418496608734], [-0.18262405693531036, -0.08535748720169067, -0.10233673453330994, 0.09915722906589508, -0.1275203973054886, 0.07035268843173981, -0.19324414432048798, 0.04334140568971634, -0.049160316586494446, 0.2860543131828308, -0.11003976315259933, -0.007500516250729561, 0.020914800465106964, -0.051190558820962906, -0.01619185507297516, -0.013767148368060589, -0.12027100473642349, -0.12763579189777374, 0.13207457959651947, -0.07264888286590576, -0.055674780160188675, -0.0955013781785965, 0.21709193289279938, 0.12513525784015656, -0.047858674079179764, -0.0752895250916481, 0.09748101979494095, 0.04722575470805168], [0.1901625692844391, -0.15213772654533386, 0.19279557466506958, -0.14165648818016052, 0.06350816786289215, 0.09667637199163437, 0.12061062455177307, -0.15281541645526886, -0.01896713860332966, 0.06530889123678207, -0.15696178376674652, -0.11798463761806488, -0.25603681802749634, 0.09251666814088821, 0.18908381462097168, 0.05809655040502548, 0.0304153710603714, 0.05154462158679962, -0.1268695443868637, -0.013720511458814144, -0.027767175808548927, -0.08680844306945801, 0.13442778587341309, -0.12581080198287964, -0.010250454768538475, -0.10473176836967468, -0.006411548238247633, -0.022474009543657303], [0.0539255291223526, -0.12429272383451462, 0.2817510962486267, -0.11887216567993164, 0.07268353551626205, -0.07085172832012177, 0.134272038936615, -0.09320367127656937, 0.06019391864538193, -0.058041978627443314, 0.08747579902410507, 0.07541372627019882, -0.2083587795495987, 0.06924086064100266, -0.1925666183233261, 0.12785704433918, -0.04417446628212929, -0.055474285036325455, -0.048560239374637604, 0.025853833183646202, -0.08490952104330063, 0.04666823148727417, -0.00418317224830389, 0.13438785076141357, 0.025467267259955406, -0.19863882660865784, 0.1359381526708603, -0.0925111174583435], [0.07691922038793564, 0.013772047124803066, -0.0036843460984528065, 0.15704819560050964, -0.031730592250823975, 0.15488821268081665, -0.12208947539329529, 0.010371374897658825, -0.11197630316019058, 0.06346909701824188, -0.018271351233124733, -0.08269774913787842, 0.20823469758033752, 0.2803601920604706, -0.08083491027355194, -0.047206904739141464, 0.07776282727718353, 0.11562994867563248, 0.011947189457714558, -0.07391239702701569, -0.040777724236249924, -0.03998861089348793, 0.3102515637874603, -0.0777963399887085, 0.10871069133281708, 0.07916217297315598, 0.15190334618091583, -0.03483176231384277], [0.040151435881853104, 0.160286545753479, -0.019627870991826057, 0.193631112575531, -0.08495551347732544, 0.006838176399469376, 0.1278570145368576, -0.153315931558609, 0.041953884065151215, -0.07892682403326035, 0.19604335725307465, -0.08823495358228683, 0.10319539904594421, 0.1396763175725937, -0.1263623982667923, -0.13413730263710022, -0.00841955840587616, 0.17951728403568268, 0.21782483160495758, -0.12450200319290161, 0.01686745136976242, -0.05167002975940704, -0.03466730937361717, 0.09673956781625748, 0.08321303129196167, -0.17402192950248718, 0.027818474918603897, -0.0865471363067627], [-0.1453322023153305, -0.1380472034215927, -0.1724051535129547, 0.15545374155044556, 0.15978305041790009, 0.015163866803050041, -0.19498512148857117, 0.06467235833406448, 0.03365197032690048, 0.27342671155929565, 0.14109931886196136, 0.062033671885728836, 0.009041577577590942, -0.15030553936958313, 0.3209245800971985, 0.0861571878194809, -0.055366966873407364, 0.2122974991798401, 0.022531485185027122, 0.013925740495324135, 0.04435481131076813, 0.01255920622497797, 0.23674343526363373, 0.22215402126312256, 0.020509911701083183, -0.0951882004737854, -0.18726515769958496, -0.017701363191008568], [-0.159572035074234, 0.07045166194438934, 0.007106195203959942, 0.04624670371413231, -0.048313744366168976, 0.05626019090414047, 0.0432218462228775, -0.07388145476579666, -0.2286929488182068, 0.17031295597553253, -0.00010219603427685797, -0.11415012925863266, 0.0494125671684742, -0.15546676516532898, -0.20326822996139526, -0.04668299853801727, 0.18115803599357605, -0.008892199955880642, -0.04101846367120743, 0.061243217438459396, -0.06714769452810287, -0.024909857660531998, -0.09056960046291351, 0.23562172055244446, -0.08101741224527359, -0.25376394391059875, -0.009078689850866795, -0.28497079014778137], [-0.2538474500179291, 0.17832042276859283, 0.06531362980604172, -0.0988435223698616, -0.03701886534690857, -0.16497068107128143, 0.13826991617679596, -0.047316089272499084, -0.11655763536691666, -0.13561253249645233, 0.09463400393724442, -0.027223944664001465, -0.05384986847639084, -0.12009105086326599, -0.1647988110780716, 0.03956667333841324, 0.09431038796901703, -0.17884255945682526, -0.1035706177353859, -0.13857702910900116, -0.08189664781093597, 0.16156457364559174, -0.02702326513826847, 0.17929896712303162, -0.04096905142068863, -0.00488384161144495, -0.11291467398405075, 0.2658897340297699], [-0.26542773842811584, 0.08217035979032516, 0.10456762462854385, 0.09731698036193848, 0.09909164905548096, -0.0470014289021492, 0.07767271995544434, -0.13707822561264038, -0.1004854068160057, 0.252383828163147, 0.021966606378555298, -0.07805982977151871, -0.07499240338802338, -0.21514111757278442, 0.10481294989585876, -0.02050773613154888, -0.07012616842985153, 0.04930691421031952, 0.12888012826442719, -0.077996164560318, -0.1109042763710022, 0.11688144505023956, 0.07308542728424072, 0.00030998047441244125, -0.1444823294878006, 0.08695682883262634, 0.09938462823629379, 0.09698625653982162], [0.07847084850072861, -0.14072784781455994, 0.08784086257219315, -0.0871349647641182, 0.18786437809467316, 0.1393740028142929, -0.009623448364436626, 0.09373220801353455, -0.09518855810165405, -0.1913558840751648, -0.0861973688006401, 0.1519874930381775, 0.051431577652692795, -0.24836407601833344, 0.08287607133388519, 0.13581080734729767, -0.19512617588043213, 0.1354534924030304, -0.002630378818139434, -0.030208876356482506, 0.14021988213062286, 0.18941135704517365, 0.15771500766277313, 0.09196046739816666, 0.0395888052880764, 0.07460502535104752, -0.16611747443675995, 0.07992412894964218], [-0.19116315245628357, 0.10548847913742065, 0.06423227488994598, 0.005034718196839094, -0.12954972684383392, -0.058758366852998734, 0.11014004051685333, 0.0938451886177063, 0.08157894760370255, -0.030820008367300034, 0.03560150787234306, -0.0036359403748065233, 0.11990053206682205, -0.181035578250885, 0.043803829699754715, 0.14245747029781342, -0.22167059779167175, -0.028335392475128174, -0.11296933889389038, -0.09804806113243103, 0.08396042883396149, -0.022045474499464035, 0.18690024316310883, -0.14267602562904358, 0.035602275282144547, -0.06918291002511978, -0.09472198784351349, 0.10549604147672653], [0.1915261596441269, 0.07978739589452744, -0.12601621448993683, -0.02095252089202404, -0.1230979859828949, 0.06694296002388, -0.13651005923748016, -0.023891957476735115, 0.0799238383769989, -0.15577474236488342, -0.18245862424373627, 0.08705945312976837, 0.035428714007139206, 0.0030716918408870697, 0.1419220268726349, -0.03331281244754791, -0.12293067574501038, -0.1906098574399948, -0.12681187689304352, -0.014258375391364098, 0.1494683176279068, -0.0022906213998794556, 0.1016707494854927, -0.08477938175201416, 0.10986647754907608, 0.29863885045051575, -0.1692466288805008, 0.09175577014684677], [-0.13222651183605194, 0.015652542933821678, -0.060465630143880844, -0.13804318010807037, 0.22927658259868622, -0.23789866268634796, 0.13301514089107513, 0.02564813755452633, 0.13423527777194977, -0.09179111570119858, 0.1221630796790123, -0.0033460308331996202, -0.05085599422454834, 0.23770330846309662, -0.22367697954177856, -0.11471273005008698, 0.20841912925243378, -0.1898796111345291, -0.20537133514881134, 0.004962708335369825, -0.0429595485329628, -0.02696000225841999, -0.15252536535263062, 0.08072668313980103, -0.13627219200134277, 0.10751963406801224, 0.11027859896421432, 0.12894098460674286], [-0.0653752014040947, 0.11340632289648056, -0.020296812057495117, -0.06051125377416611, -0.0652397945523262, -0.09702491760253906, -0.1433701366186142, 0.11237538605928421, 0.029278583824634552, 0.06076125428080559, 0.14927814900875092, 0.049623455852270126, -0.08191195130348206, -0.24374383687973022, -0.21216091513633728, 0.07330172508955002, -0.22594262659549713, -0.0769580751657486, -0.02668723091483116, 0.07531213760375977, 0.07816548645496368, -9.570565453032032e-05, 0.20802150666713715, 0.06621872633695602, 0.011755473911762238, 0.015365898609161377, -0.15154463052749634, 0.033201366662979126], [-0.0015050952788442373, 0.07523699104785919, 0.026339448988437653, -0.09857960045337677, 0.040638186037540436, 0.004570986144244671, -0.09066807478666306, -0.014368675649166107, -0.11743594706058502, 0.189082533121109, -0.24349942803382874, -0.022478803992271423, -0.03506449982523918, -0.08641429245471954, 0.033848609775304794, -0.0689607784152031, -0.01768253929913044, -0.06515753269195557, 0.019320880994200706, 0.07727311551570892, 0.04966633766889572, -0.1485392451286316, -0.07494059205055237, 0.07701480388641357, -0.0955720767378807, -0.19131118059158325, -0.04003202170133591, -0.2312149703502655], [0.31855130195617676, -0.09158528596162796, -0.11738769710063934, -0.020336346700787544, 0.05274277925491333, 0.05199114978313446, 0.17837904393672943, -0.1258813589811325, 0.026249058544635773, -0.04381532967090607, -0.15082766115665436, 0.011100581847131252, 0.05642693117260933, 0.2537109851837158, 0.2004334181547165, 0.07833021134138107, -0.0477539487183094, -0.016583697870373726, 0.01780136674642563, -0.05323769524693489, -0.03623339161276817, -0.027540676295757294, 0.0913659855723381, 0.0030839017126709223, -0.08842992782592773, -0.19296209514141083, -0.143117755651474, -0.13168415427207947], [0.11973979324102402, 0.0011504135327413678, 0.08381021022796631, 0.1339898407459259, 0.05293082818388939, 0.047684408724308014, -0.08109079301357269, 0.06908108294010162, 0.09633728116750717, -0.15690939128398895, -0.12389165908098221, -0.01943482644855976, 0.0892474576830864, 0.17663902044296265, -0.14825834333896637, -0.11282054334878922, 0.04094454273581505, -0.024566825479269028, 0.08311893045902252, -0.07510987669229507, 0.10561678558588028, 0.003948053810745478, 0.1520407646894455, -0.1047990694642067, 0.06946654617786407, 0.0690120980143547, -0.09451914578676224, 0.14091992378234863], [-0.21406866610050201, 0.2231261432170868, 0.016155805438756943, 0.007914414629340172, 0.058438003063201904, -0.0063237291760742664, 0.09477987885475159, 0.0856490284204483, -0.12497249990701675, 0.1480807214975357, -0.009037704207003117, -0.04149008169770241, 0.053184784948825836, 0.14210566878318787, -0.23391221463680267, -0.08936340361833572, 0.07202122360467911, -0.12489017844200134, 0.02383267693221569, -0.04922793433070183, 0.08441153913736343, 0.09986262768507004, -0.09059753268957138, -0.07178380340337753, 0.06351646780967712, 0.047853339463472366, -0.020799042657017708, -0.1285872608423233], [0.196121945977211, -0.17701761424541473, 0.005572628695517778, 0.06028720736503601, -0.02509542554616928, 0.14069703221321106, 0.02283894456923008, 0.10083650052547455, 0.035345397889614105, -0.05306956171989441, 0.17521466314792633, 0.0567270927131176, -0.10987723618745804, 0.17497166991233826, 0.2968170940876007, 0.019001293927431107, 0.15247100591659546, 0.11169948428869247, 0.0003090192622039467, 0.039241231977939606, 0.14012575149536133, 0.010593995451927185, 0.20295000076293945, 0.10858701914548874, 0.005898207891732454, 0.08093676716089249, 0.1694403439760208, -0.05669110640883446], [0.12994080781936646, -0.018035035580396652, 0.145143523812294, 0.05462750419974327, -0.03337286040186882, 0.06568469107151031, -0.11400681734085083, 0.08789227157831192, 0.0908283069729805, -0.2611876130104065, 0.12272938340902328, -0.06042085215449333, 0.01889747381210327, -0.11320521682500839, 0.17131228744983673, 0.04379621893167496, 0.11748725920915604, 0.10965330898761749, -0.04658228158950806, -0.13525980710983276, 0.11411703377962112, 0.024113941937685013, 0.15949156880378723, -0.251797616481781, -0.036322906613349915, -0.0381447933614254, 0.1850912719964981, 0.1887172907590866], [0.22481437027454376, 0.15104712545871735, -0.03101530484855175, -0.2110094577074051, -0.047841209918260574, -0.043589700013399124, 0.10368973761796951, 0.0476822592318058, 0.14934438467025757, -0.023384246975183487, -0.1495303064584732, -0.1078782007098198, 0.09951447695493698, 0.28079622983932495, -0.09757746756076813, -0.015939859673380852, -0.21517078578472137, -0.14271190762519836, 0.021573171019554138, -0.04789287596940994, 0.06895019859075546, 0.06473132967948914, -0.04227208346128464, 0.05064462497830391, -0.02246936969459057, 0.036552924662828445, -0.07198579609394073, -0.13613900542259216], [0.042068496346473694, -0.04764031246304512, -0.021772967651486397, 0.11789731681346893, -0.1512816995382309, -0.19811028242111206, -0.10625124722719193, -0.08285319060087204, -0.00041059619979932904, -0.07191132009029388, 0.1017327606678009, -0.11593404412269592, -0.06621705740690231, 0.069813072681427, 0.11934956163167953, 0.1804760843515396, 0.11530198901891708, -0.14925584197044373, -0.22368182241916656, -0.05610518902540207, -0.06282103806734085, 0.049338363111019135, 0.014620828442275524, 0.12538397312164307, 0.029548024758696556, 0.029006050899624825, 0.006495309062302113, 0.10899066179990768], [-0.05608871579170227, 0.046940531581640244, -0.1337437778711319, 0.16072118282318115, 0.031444814056158066, -0.16573239862918854, -0.12936905026435852, 0.0658567026257515, 0.21527555584907532, -0.2460854947566986, -0.02231031097471714, 0.01864865981042385, -0.12872710824012756, -0.003923565149307251, 0.05744166299700737, 0.05995889753103256, 0.07532984018325806, -0.048011887818574905, -0.015499197877943516, -0.10924308747053146, -0.18522614240646362, -0.06793045997619629, 0.018101869150996208, -0.378978967666626, 0.12041372060775757, 0.11691642552614212, -0.13008759915828705, -0.20363599061965942], [-0.10360276699066162, -0.10082710534334183, 0.13616204261779785, -0.11052195727825165, 0.04455304890871048, -0.16784293949604034, -0.10157210379838943, -0.09129950404167175, 0.052911426872015, 0.03071657568216324, -0.21217696368694305, -0.1128956750035286, -0.12592504918575287, -0.23353812098503113, 0.06322009861469269, 0.05195733904838562, -0.09069114923477173, -0.05151917785406113, -0.017585795372724533, -0.12008442729711533, -0.12536075711250305, 0.022546852007508278, 0.08765949308872223, -0.043967120349407196, 0.08982382714748383, -0.027785567566752434, -0.05030665546655655, -0.13356956839561462], [0.18959665298461914, 0.2320294976234436, -0.030149245634675026, 0.030466381460428238, 0.12742456793785095, 0.09010344743728638, 0.1347956508398056, -0.14258486032485962, -0.16488586366176605, -0.06934293359518051, 0.06504656374454498, -0.22390325367450714, -0.08430502563714981, -0.05067121237516403, -0.2531903088092804, 0.03333650156855583, 0.05888496711850166, 0.02534615993499756, 0.21183089911937714, -0.0760553777217865, -0.028242962434887886, 0.04744318500161171, 0.20059294998645782, 0.0493159256875515, -0.06213342770934105, -0.1745574176311493, 0.02406485378742218, 0.030231153592467308], [0.08959890156984329, -0.14882387220859528, -0.17402508854866028, -0.08956637978553772, -0.0905495136976242, -0.002131878398358822, 0.014442936517298222, -0.06484842300415039, -0.007091331295669079, -0.22772742807865143, -0.2532394826412201, -0.11434794217348099, -0.12068802118301392, 0.2508801519870758, 0.19297724962234497, -0.09305288642644882, 0.012503945268690586, 0.08898179978132248, 0.016025468707084656, -0.0870092511177063, -0.08185853809118271, -0.16032849252223969, -0.016824401915073395, -0.17925317585468292, -0.04753489792346954, -0.11394583433866501, 0.18546150624752045, 0.10829048603773117], [0.130318745970726, -0.07202034443616867, -0.09215294569730759, 0.03318862244486809, -0.1198531985282898, -0.012512292712926865, -0.03241922706365585, -0.06317971646785736, -0.18222875893115997, 0.19267717003822327, 0.08823597431182861, -0.12391937524080276, 0.006252263206988573, 0.004764072597026825, 0.10987402498722076, 0.017922714352607727, 0.18517425656318665, 0.04268777742981911, -0.17760267853736877, -0.08426156640052795, 0.10925773531198502, 0.0172262042760849, -0.03196651488542557, 0.05189293995499611, -0.05402034521102905, -8.854177576722577e-05, -0.09968547523021698, 0.09813003987073898], [0.009587530046701431, 0.12199444323778152, -0.026649050414562225, -0.022830422967672348, 0.08312290161848068, 0.09203428030014038, 0.02018064633011818, 0.0843856930732727, -0.025906817987561226, -0.050765424966812134, 0.0058717443607747555, -0.10800834745168686, 0.12941111624240875, 0.16057583689689636, -0.06700518727302551, 0.21033719182014465, -0.10430890321731567, 0.10216206312179565, 0.06456220149993896, 0.010536148212850094, -0.1445886343717575, -0.11222683638334274, -0.0008250923710875213, 0.07286199927330017, -0.081401027739048, 0.08510390669107437, -0.07859613001346588, 0.0019444171339273453], [-0.21570540964603424, -0.08659672737121582, -0.09549132734537125, -0.09550415724515915, 0.10708649456501007, 0.08266228437423706, 0.14957687258720398, -0.12997885048389435, 0.04287097230553627, -0.15867136418819427, -0.13661831617355347, 0.015482190996408463, -0.14817756414413452, -0.23407681286334991, -0.22010061144828796, -0.16568216681480408, 0.12153524905443192, 0.06935592740774155, -0.17113900184631348, -0.07975635677576065, -0.1585022658109665, -0.04808737710118294, -0.13565202057361603, 0.06591290980577469, 0.045913659036159515, -0.013546724803745747, 0.1301012933254242, -0.05788448825478554], [-0.25443559885025024, -0.1304847002029419, -0.06960597634315491, 0.162739560008049, 0.15071611106395721, -0.1491205394268036, -0.14412836730480194, 0.046932153403759, -0.13531628251075745, 0.18103298544883728, -0.15238399803638458, 0.10696429759263992, -0.24594074487686157, -0.15363232791423798, 0.1696258783340454, 0.048962172120809555, 0.16708062589168549, 0.15777985751628876, 0.038192570209503174, -0.05431743711233139, -0.00037468201480805874, -0.04714902862906456, 0.01594340056180954, -0.14721441268920898, -0.16654936969280243, 0.16416823863983154, -0.11043302714824677, 0.18326491117477417], [0.04601142182946205, 0.02729119546711445, 0.25623828172683716, -0.11535435169935226, 0.00046186160761862993, 0.02618921361863613, 0.054322365671396255, -0.134749636054039, 0.02673695795238018, -0.05566420033574104, 0.003291271859779954, 0.12398456037044525, -0.0751042291522026, 0.05094518885016441, -0.0729881078004837, 0.1502922624349594, 0.10241888463497162, -0.014873876236379147, -0.1497824639081955, -0.06451977044343948, 0.1365538239479065, 0.1121344193816185, 0.08548419177532196, -0.12108385562896729, 0.15322527289390564, 0.029376786202192307, 0.13923399150371552, 0.21190577745437622], [0.041781309992074966, -0.15005497634410858, 0.31988850235939026, -0.14102590084075928, 0.09039650857448578, -0.16022591292858124, -0.024161765351891518, -0.1574268341064453, -0.1179804727435112, 0.08756791800260544, -0.17420749366283417, -0.1631213128566742, 0.06434234231710434, 0.19954350590705872, 0.012762357480823994, -0.1502191126346588, -0.058186691254377365, -0.0759643167257309, 0.11369092762470245, -0.02223110757768154, -0.007865853607654572, -0.0845133438706398, -0.16900533437728882, 0.0988636389374733, 0.1159563735127449, 0.08717814087867737, -0.07090578228235245, 0.24117031693458557], [0.003935761284083128, -0.003980104345828295, -0.08548557758331299, -0.0776866152882576, 0.03868827223777771, 0.007103542797267437, 0.11800976097583771, 0.03285641968250275, 0.1594333052635193, -0.1905774176120758, -0.12596555054187775, -0.04654434323310852, -0.12310823053121567, -0.25276219844818115, -0.1960008442401886, 0.08534111082553864, 0.03302101790904999, -0.015354637056589127, -0.026745904237031937, 0.19183090329170227, -0.10873925685882568, 0.08388395607471466, 0.09500480443239212, -0.13491055369377136, -0.03180936723947525, 0.10313519090414047, 0.18319164216518402, -0.02970382198691368], [0.13984814286231995, -0.277348130941391, -0.1585155874490738, 0.29380884766578674, 0.040042031556367874, 0.15999002754688263, 0.01595878414809704, -0.09280919283628464, 0.12628430128097534, 0.17100240290164948, 0.09566106647253036, -0.06635870784521103, -0.02749001421034336, -0.03695439174771309, 0.35372331738471985, -0.10109497606754303, 0.07598071545362473, 0.09923210740089417, 0.034957531839609146, -0.047381691634655, 0.1734694391489029, 0.20145729184150696, -0.15612682700157166, 0.06993844360113144, 0.009244303219020367, 0.047959454357624054, -0.1351531744003296, 0.054062776267528534], [-0.16231288015842438, 0.04569690302014351, 0.17569489777088165, 0.04204081743955612, 0.09060666710138321, -0.09778795391321182, 0.02290581353008747, -0.16415174305438995, 0.04305087402462959, 0.04750360921025276, 0.09046857804059982, -0.012112325057387352, -0.10029257088899612, 0.21979942917823792, 0.19075505435466766, 0.06945866346359253, -0.06751083582639694, 0.05092594772577286, 0.10420186817646027, 0.1587737649679184, 0.005501690320670605, -0.001586804399266839, -0.042751796543598175, 0.09402080625295639, -0.02104976773262024, 0.1677737683057785, 0.09845783561468124, -0.13751812279224396], [-0.02324010618031025, -0.14136695861816406, -0.16540612280368805, 0.07246991991996765, 0.087139792740345, -0.03367166593670845, 0.1411125808954239, -0.06674009561538696, -0.10183132439851761, 0.017868127673864365, -0.05974147468805313, -0.08725621551275253, 0.14461573958396912, -0.11839745938777924, -0.14120057225227356, -0.04807243123650551, 0.09919501096010208, 0.006339985877275467, 0.10260313004255295, 0.05284101516008377, 0.08200027793645859, 0.10255497694015503, 0.13676662743091583, 0.05355297401547432, -0.09767303615808487, -0.14767557382583618, 0.06438025832176208, 0.07431147992610931], [-0.0647333562374115, 0.2164115309715271, 0.07156790792942047, -0.03150457888841629, 0.011792932637035847, -0.02195965312421322, 0.17906838655471802, -0.007780633866786957, 0.12931562960147858, -0.1689155399799347, -0.12681402266025543, 0.03379565477371216, 0.14913125336170197, 0.07931596785783768, -0.08961904793977737, -0.15373411774635315, -0.04404842108488083, -0.18911169469356537, -0.22673605382442474, 0.01880047656595707, -0.10092877596616745, 0.1435682773590088, -0.14517587423324585, 0.065402552485466, 0.08404514938592911, -0.07051589339971542, 0.09671733528375626, 0.0515928640961647], [0.1800798773765564, 0.23754365742206573, 0.018613317981362343, -0.12542711198329926, 0.0973629280924797, 0.03535810112953186, -0.05754098296165466, 0.06802225112915039, -0.02118634805083275, -0.027153635397553444, 0.19022490084171295, 0.08630802482366562, -0.14256563782691956, 0.16368035972118378, -0.35039669275283813, -0.018863555043935776, 0.06897693872451782, -0.11811760067939758, -0.1054060161113739, -0.05779578909277916, 0.07990378141403198, -0.16389505565166473, -0.09440235793590546, -0.21052947640419006, 0.015496112406253815, -0.06095471978187561, 0.014402024447917938, 0.018993649631738663], [-0.18237097561359406, 0.0956680029630661, -0.13335715234279633, -0.1605035364627838, 0.054923247545957565, -0.14273813366889954, -0.20459692180156708, 0.14015573263168335, -0.03959662839770317, -0.03729939088225365, -0.015381772071123123, 0.0694090873003006, -0.055777281522750854, -0.22419880330562592, -0.30237922072410583, -0.05030133202672005, -0.04576905071735382, -0.19382934272289276, -0.0135061489418149, -0.13224494457244873, 0.14577269554138184, -0.05195261910557747, -0.11094474047422409, 0.06338520348072052, -0.011173440143465996, 0.20091612637043, -0.13029083609580994, 0.016953453421592712], [-0.2140064835548401, 0.06925889849662781, 0.23847070336341858, 0.19184571504592896, -0.011764074675738811, -0.08770772814750671, 0.15723714232444763, 0.01739656738936901, 0.12026949226856232, -0.08245968073606491, -0.08137312531471252, -0.14198140799999237, 0.18530645966529846, -0.058435626327991486, -0.19283078610897064, 0.06897751986980438, -0.10710033029317856, -0.024623237550258636, 0.035524848848581314, -0.07965681701898575, 0.003734842874109745, -0.11007671803236008, 0.04192981868982315, -0.1807403266429901, 0.0007133139297366142, 0.2867148220539093, 0.17407391965389252, 0.16853277385234833], [0.1313401311635971, 0.18674367666244507, 0.00397166283801198, 0.0426742322742939, 0.0920119658112526, 0.22997094690799713, 0.1149764135479927, -0.055640384554862976, -0.04794161394238472, -0.06649364531040192, 0.12470358610153198, -0.19387269020080566, 0.09771415591239929, -0.0809905156493187, -0.006524149794131517, 0.07941236346960068, -0.13705119490623474, 0.06949371099472046, -0.06652261316776276, -0.12272095680236816, 0.15335418283939362, 0.1225566565990448, 0.12356717139482498, -0.038513440638780594, 0.07430294901132584, 0.0003129769174847752, -0.0642160028219223, 0.19251297414302826], [0.0534481443464756, -0.04130948707461357, -0.23593750596046448, 0.2524852752685547, -0.017693685367703438, 0.24028465151786804, 0.16156163811683655, 0.06145390123128891, 0.1614685207605362, 0.0839763805270195, 0.09587699919939041, -0.040784671902656555, 0.1456286907196045, 0.025398582220077515, 0.22527073323726654, -0.06543199717998505, 0.1369519829750061, 0.15430200099945068, -0.2379467487335205, 0.18244171142578125, -0.09180303663015366, -0.051926981657743454, -0.12608109414577484, 0.00399646395817399, -0.15339161455631256, 0.04724082350730896, -0.09499868005514145, 0.16959035396575928], [-0.18938717246055603, -0.017094818875193596, 0.004203382879495621, -0.028156260028481483, -0.07423199713230133, 0.13663579523563385, -0.11276436597108841, -0.15210266411304474, -0.04038127139210701, -0.13298822939395905, 0.09426167607307434, -0.06903865188360214, 0.018446072936058044, 0.029037704691290855, -0.2279619425535202, 0.1793902963399887, -0.11541011929512024, -0.04883364588022232, -0.1806062012910843, -0.04718702659010887, -0.040835484862327576, -0.16319173574447632, -0.01779734157025814, -0.026454266160726547, 0.1276295930147171, 0.21656934916973114, 0.1644020825624466, 0.14522068202495575], [0.14483466744422913, 0.15663088858127594, 0.35524141788482666, -0.19959598779678345, -0.07136435061693192, -0.14428944885730743, 0.01476279180496931, -0.06413891166448593, 0.14920784533023834, -0.008267795667052269, -0.02686159498989582, -0.14828358590602875, -0.22638651728630066, 0.12213660031557083, -0.19875164330005646, -0.07968706637620926, 0.10728151351213455, -0.13322611153125763, -0.11148302257061005, 0.17315523326396942, 0.08470401912927628, -0.07105162739753723, -0.014432708732783794, 0.05215686932206154, -0.15372537076473236, 0.11628318578004837, 0.043176766484975815, 0.07385817170143127], [0.22077880799770355, -0.18835175037384033, 0.17561230063438416, -0.05232980102300644, -0.1311957687139511, 0.15147314965724945, -0.07689812034368515, 0.007791008800268173, 0.11685891449451447, -0.1705874800682068, -0.15016509592533112, 0.06419062614440918, 0.0865531712770462, 0.03936758264899254, 0.13982157409191132, 0.03497646376490593, 0.05191367492079735, -0.1860673576593399, 0.11853231489658356, 0.08550859987735748, 0.0615139976143837, 0.10467439144849777, -0.13873881101608276, 0.008886981755495071, -0.0881238803267479, 0.06487225741147995, 0.06191682070493698, 0.16843125224113464], [0.011974659748375416, -0.09262971580028534, -0.14754439890384674, 0.09123314917087555, 0.015929002314805984, -0.16724680364131927, 0.1391369104385376, -0.017849909141659737, -0.13267293572425842, 0.1908269077539444, 0.164450004696846, -0.14424081146717072, 0.07586513459682465, -0.12279488891363144, 0.010912447236478329, 0.06742255389690399, 0.026746181771159172, 0.04350254684686661, -0.04576510190963745, 0.01493679080158472, 0.004556427244096994, 0.049169544130563736, 0.05218380689620972, 0.10053182393312454, -0.06930644810199738, -0.18443873524665833, -0.17439965903759003, -0.23233897984027863], [-0.14345726370811462, 0.14371250569820404, 0.1378927230834961, -0.18553262948989868, -0.10442058742046356, 0.07483839243650436, -0.049879640340805054, -0.07426616549491882, -0.05875970423221588, -0.075046606361866, 0.0037704070564359426, 0.027625208720564842, 0.059110354632139206, 0.1100701242685318, 0.10112632811069489, 0.0184116642922163, -0.14689293503761292, -0.0483306348323822, -0.21602928638458252, 0.06461826711893082, 0.007579599507153034, -0.061067938804626465, -0.18945921957492828, 0.07363509386777878, 0.08700097352266312, 0.2634968161582947, -0.06695075333118439, 0.14842189848423004], [0.08217062801122665, -0.1609588861465454, -0.15116624534130096, 0.22888080775737762, -0.0022952870931476355, 0.19150510430335999, 0.04917825758457184, 0.04803125560283661, 0.15499387681484222, 0.031574662774801254, 0.19125770032405853, 0.15886884927749634, -0.03313462808728218, -0.08425574004650116, 0.08638510853052139, 0.07284683734178543, 0.13021330535411835, 0.10293280333280563, -0.16777420043945312, -0.04803904891014099, -0.08892891556024551, 0.12576830387115479, -0.027490941807627678, -0.18078802525997162, 0.08815878629684448, 0.19139644503593445, -0.0791139230132103, 0.019339071586728096], [-0.12179762870073318, 0.24565893411636353, -0.1975586861371994, 0.13389833271503448, 0.14117035269737244, 0.013950170949101448, -0.04109470173716545, 0.10056944936513901, 0.10564318299293518, 0.1577213704586029, 0.13518095016479492, -0.09457852691411972, 0.1492033302783966, 0.06703349947929382, -0.23376649618148804, 0.11989469826221466, -0.12998172640800476, -0.18767154216766357, -0.06219256669282913, -0.030315343290567398, -0.0621669664978981, -0.12189540266990662, 0.13314568996429443, 0.15951718389987946, -0.085866779088974, -0.07220453023910522, -0.009744720533490181, -0.10898122191429138], [-0.22729487717151642, -0.10772202163934708, 0.1961120218038559, -0.1309940367937088, 0.000886723049916327, -0.06854715943336487, -0.19126464426517487, -0.021336987614631653, -0.049332424998283386, -0.041072968393564224, 0.1700381338596344, 0.08042095601558685, 0.06719926744699478, 0.029059531167149544, 0.020026328042149544, 0.07708247005939484, -0.15652282536029816, 0.05922330915927887, -0.002169202547520399, -0.04844966530799866, -0.0080946683883667, -0.09598542749881744, -0.16231729090213776, -0.037844814360141754, 0.0426127053797245, 0.02551531419157982, 0.058386072516441345, -0.07942832261323929], [-0.23415496945381165, 0.12102051079273224, -0.19986389577388763, 0.06991059333086014, 0.18207229673862457, 0.0034773859661072493, 0.006460829637944698, -0.09821687638759613, -0.03560594096779823, 0.11605782061815262, -0.13795414566993713, -0.06683257222175598, -0.08680608123540878, -0.26428282260894775, -0.1990666687488556, 0.047860439866781235, 0.030424216762185097, 0.1911323070526123, 0.03923502191901207, -0.1525285542011261, -0.06463924050331116, 0.11583377420902252, 0.046416088938713074, 0.26152366399765015, 0.06572479009628296, -0.18254926800727844, 0.12832164764404297, -0.19623756408691406], [0.07523755729198456, 0.052741359919309616, 0.06227218359708786, -0.04903286322951317, -0.15557199716567993, -0.041540294885635376, 0.1621415615081787, 0.02285047620534897, 0.12008114904165268, -0.10498326271772385, 0.11642049998044968, -0.07400795817375183, -0.021287158131599426, 0.10271067172288895, -0.10312515497207642, -0.075111523270607, -0.0231745857745409, 0.08820734173059464, -0.011715361848473549, 0.06264422833919525, -0.2034563571214676, 0.06337843090295792, 0.1362808793783188, 0.08095324784517288, -0.019056694582104683, -0.25580722093582153, 0.08874652534723282, 0.0715443342924118], [0.19436301290988922, -0.08554894477128983, 0.14228975772857666, 0.18319551646709442, -0.055417172610759735, -0.05695812776684761, -0.1496276557445526, 0.06425028294324875, 0.10718927532434464, 0.229749396443367, -0.14218024909496307, 0.07351033389568329, -0.12435311079025269, 0.022079475224018097, 0.23525838553905487, -0.14120641350746155, 0.1707996428012848, 0.11970135569572449, -0.07545967400074005, 0.058930493891239166, 0.01125416625291109, -0.03717149421572685, -0.059308648109436035, -0.08930086344480515, 0.0042958250269293785, 0.13999705016613007, -0.021987484768033028, -0.04528011009097099], [0.01388808898627758, -0.009088537655770779, 0.02846728079020977, -0.16794361174106598, -0.11680874228477478, -0.000969964312389493, 0.052377015352249146, 0.11338134855031967, 0.041076019406318665, 0.08667735755443573, 0.1262459009885788, -0.07364563643932343, -0.1102815493941307, 0.1605929732322693, 0.14752927422523499, 0.06520206481218338, -0.17796212434768677, 0.08907915651798248, -0.21581187844276428, 0.053788311779499054, 0.05124587565660477, 0.03711602836847305, -0.1787036508321762, -0.04968805983662605, 0.06436041742563248, 0.23306071758270264, -0.05410382151603699, 0.25656670331954956], [-0.07723778486251831, -0.20893079042434692, -0.027319811284542084, 0.015211452730000019, -0.07511676102876663, 0.10793761909008026, -0.10184332728385925, -0.10793964564800262, -0.18184830248355865, 0.22607314586639404, -0.0791541188955307, -0.13748252391815186, -0.06627453118562698, -0.00417311443015933, 0.20811964571475983, -0.029169254004955292, 0.12020745128393173, -0.06217068061232567, -0.07972434163093567, -0.06678977608680725, 0.05642201751470566, 0.16344308853149414, -0.0768945962190628, 0.20645232498645782, 0.13772355020046234, -0.022686097770929337, -0.016237394884228706, -0.013518857769668102], [0.0006086588255129755, -0.07509861141443253, 0.1262136697769165, -0.016624120995402336, -0.14619924128055573, -0.10505449026823044, -0.19694367051124573, -0.11108306795358658, 0.06288034468889236, 0.03711351007223129, 0.1158672645688057, -0.1594417691230774, -0.0324389785528183, -0.2580961287021637, -0.015591542236506939, 0.09186571836471558, -0.2114727646112442, 0.17523182928562164, -0.1072714552283287, 0.1533428132534027, -0.02016354911029339, 0.07921754568815231, 0.14435940980911255, -0.033854205161333084, -0.055463992059230804, 0.176052987575531, -0.1617935448884964, 0.1890653818845749], [-0.061017099767923355, 0.11028748005628586, -0.1007302850484848, -0.04045441746711731, 0.30182960629463196, -0.12046471238136292, 0.06001131236553192, 0.10898347198963165, 0.18978962302207947, -0.344331830739975, 0.14623452723026276, -0.0030762834940105677, -0.005836302414536476, -0.07535409182310104, 0.05259903147816658, -0.03836352750658989, -0.0523495189845562, -0.2554723620414734, 0.010227025486528873, -0.05891234427690506, 0.04236295446753502, 0.08747222274541855, 0.18937329947948456, -0.20142745971679688, -0.12076655775308609, -0.007012879475951195, -0.1636398881673813, 0.1766948401927948], [-0.07737775892019272, 0.013864443637430668, -0.058677736669778824, 0.21581929922103882, 0.21638523042201996, -0.09267548471689224, 0.11103775352239609, -0.09348802268505096, -0.07248862832784653, 0.06891969591379166, 0.05941588804125786, 0.18667863309383392, -0.23680147528648376, 0.3211100399494171, 0.2919497787952423, 0.13145965337753296, 0.12354233115911484, -0.05558231100440025, 0.18212832510471344, 0.09429941326379776, -0.12696993350982666, -0.049097273498773575, 0.081916943192482, 0.13014258444309235, 0.043600086122751236, 0.1641068011522293, -0.09711766242980957, -0.013401896692812443], [-0.11441224813461304, 0.023732878267765045, 0.09429986774921417, -0.1317770928144455, -0.04305155202746391, -0.18690381944179535, -0.15098637342453003, 0.12913672626018524, -0.07672237604856491, 0.10690756142139435, -0.06567203998565674, -0.021645154803991318, -0.0941438153386116, 0.19867834448814392, 0.004141585901379585, 0.14928586781024933, 0.0874345675110817, 0.08846615254878998, -0.24051032960414886, -0.11507070064544678, -0.10825560986995697, -0.05221942812204361, -0.08830297738313675, 0.06306206434965134, 0.15163780748844147, 0.14742940664291382, -0.13150472939014435, -0.05619799718260765], [0.14880900084972382, 0.0415005087852478, 0.11880270391702652, -0.16145575046539307, -0.05142020806670189, 0.112495556473732, -0.08555123955011368, 0.13381443917751312, 0.09809791296720505, -0.12437467277050018, -0.18317414820194244, -0.020718378946185112, 0.0006604722584597766, -0.0959673672914505, 0.13588163256645203, -0.11559851467609406, -0.1590619832277298, -0.16123802959918976, -0.0319068469107151, 0.023985128849744797, -0.011602144688367844, 0.1380717009305954, -0.28639090061187744, 0.08289966732263565, -0.11431827396154404, 0.06210530176758766, -0.18198996782302856, -0.03498690947890282], [-0.22533851861953735, 0.19297628104686737, -0.03236807510256767, -0.012646506540477276, -0.08388926088809967, -0.036761414259672165, 0.022965509444475174, 0.13144409656524658, -0.01832709088921547, 0.2693082094192505, -0.06479530781507492, -0.024426620453596115, 0.14719700813293457, 0.011222383007407188, -0.3027062714099884, -0.03482340648770332, 0.02839464135468006, 0.05995866283774376, -0.09731975197792053, 0.045836471021175385, -0.11302167177200317, 0.007519035134464502, -0.07216141372919083, 0.05159963667392731, 0.01979081518948078, -0.13597330451011658, 0.038120999932289124, -0.10394048690795898], [-0.028022442013025284, -0.10755018889904022, -0.10216078162193298, 0.059216052293777466, 0.0043475572019815445, 0.007048528641462326, 0.13107672333717346, -0.1312737911939621, 0.1289922595024109, -0.14314551651477814, -0.13730153441429138, -0.010647534392774105, -0.004059231840074062, 0.08366478234529495, 0.11989426612854004, -0.09427042305469513, 0.12091471999883652, -0.053651489317417145, -0.2489105612039566, -0.01149718463420868, -0.07031866163015366, -0.03335261717438698, -0.13031481206417084, -0.25576767325401306, 0.10351859778165817, -0.10242493450641632, 0.17567360401153564, -0.07761012017726898], [-0.07599414139986038, -0.08249810338020325, -0.09947114437818527, 0.05780068039894104, 0.0901671051979065, -0.13110382854938507, -0.05719735100865364, 0.1300491988658905, -0.049956098198890686, 0.09307422488927841, 0.13534776866436005, -0.08085096627473831, -0.09342848509550095, 0.06677202135324478, -0.07987242192029953, -0.1460369974374771, -0.10517355799674988, -0.031081413850188255, 0.24922534823417664, 0.0783650353550911, 0.08073827624320984, 0.03308036923408508, -0.13468685746192932, 0.1653248816728592, -0.02017822489142418, -0.19591024518013, 0.15401235222816467, -0.2444208860397339], [-0.01642446778714657, -0.21039338409900665, 0.1465165764093399, 0.08768771588802338, -0.16808128356933594, 0.16531960666179657, -0.01023978739976883, -0.07105971872806549, 0.10041606426239014, 0.1102871522307396, 0.09649937599897385, -0.07578203082084656, -0.11571507155895233, -0.15858814120292664, 0.13735616207122803, 0.0389765202999115, -0.14173541963100433, 0.21669797599315643, 0.08766362816095352, -0.022969307377934456, 0.07967991381883621, -0.04126254469156265, 0.03410143777728081, 0.1398886889219284, -0.15855321288108826, -0.022594397887587547, -0.01068046223372221, 0.09981642663478851], [-0.13749663531780243, -0.07879727333784103, -0.09728775173425674, 0.06614964455366135, -0.02752399817109108, -0.012851424515247345, 0.04257700592279434, 0.03266075253486633, -0.03006773069500923, 0.03658505529165268, 0.0038538044318556786, 0.13614176213741302, -0.06125502288341522, -0.0770905613899231, 0.11556865274906158, -0.15251049399375916, 0.10231856256723404, 0.04068741947412491, 0.101699098944664, -0.05848013982176781, -0.052263885736465454, -0.09443226456642151, -0.2036590725183487, 0.20392677187919617, -0.192344069480896, -0.2424439787864685, -0.07340963184833527, -0.075784832239151], [0.05678457021713257, -0.0999113917350769, -0.06747432053089142, 0.08992887288331985, 0.17637678980827332, 0.13772889971733093, 0.024753673002123833, 0.01457493007183075, 0.06872417777776718, -0.269174724817276, -0.008788598701357841, -0.0747869536280632, 0.18897195160388947, -0.17698363959789276, 0.023769471794366837, -0.17585204541683197, 0.0722832903265953, -0.12901760637760162, 0.048187386244535446, -0.07281020283699036, 0.015261831693351269, 0.07410190254449844, -0.09722596406936646, -0.049257997423410416, -0.0814492255449295, -0.11059866845607758, -0.16080744564533234, -0.009706864133477211], [0.08477817475795746, 0.1474355310201645, 0.17145396769046783, -0.03391726315021515, -0.06596136093139648, -0.13346929848194122, 0.026458758860826492, -0.12415805459022522, -0.05216110870242119, -0.18077155947685242, -0.10244745761156082, -0.06967717409133911, -0.09738494455814362, 0.10325063765048981, -0.005646813660860062, -0.04985534027218819, -0.008488556370139122, 0.07238995283842087, 0.04650804400444031, 0.1353493630886078, 0.002465492347255349, -0.09527567028999329, -0.2238510400056839, -0.046149905771017075, 0.02131948247551918, 0.09091682732105255, 0.17790010571479797, 0.03542093560099602], [-0.1334679126739502, -0.012068236246705055, 0.159053236246109, 0.04059198498725891, -0.08650268614292145, 0.03511429205536842, -0.16856949031352997, -0.022235924378037453, 0.07619845122098923, -0.10020976513624191, 0.125046044588089, -0.13668914139270782, 0.15331260859966278, 0.09754960238933563, 0.11695119738578796, 0.04872574284672737, 0.007696114014834166, -0.12657493352890015, -0.18175821006298065, -0.07321637868881226, 0.16927605867385864, -0.060185205191373825, 0.010920773260295391, -0.19166873395442963, 0.04723566398024559, 0.018139926716685295, -0.1511533558368683, 0.1065574586391449], [-0.17681430280208588, 0.07656828314065933, -0.11155868321657181, 0.057110078632831573, -0.1638927459716797, 0.06751544773578644, 0.0666193813085556, -0.12578898668289185, 0.10177139937877655, 0.16815240681171417, -0.14746181666851044, -0.010751600377261639, 0.06728056073188782, 0.11132196336984634, 0.015170642174780369, -0.12780694663524628, -0.20671556890010834, -0.20347416400909424, -0.12409762293100357, -0.012325511313974857, -0.07708035409450531, 0.08273684978485107, -0.1370479017496109, -0.13369116187095642, -0.12831097841262817, -0.02454574964940548, 0.18510141968727112, 0.11188310384750366], [-0.10057013481855392, -0.10224711894989014, -0.1515241116285324, 0.006279092747718096, 0.16841793060302734, 0.053180016577243805, 0.08046611398458481, 0.0017418728675693274, -0.04795034974813461, -0.1920069009065628, 0.2134837955236435, -0.16707247495651245, 0.03441685065627098, -0.049482833594083786, 0.23360423743724823, 0.025105293840169907, -0.038544073700904846, -0.13416844606399536, 0.0704435482621193, -0.1637224406003952, -0.11941169202327728, 0.013020054437220097, 0.1475183516740799, -0.09398608654737473, -0.14080004394054413, -0.2039305567741394, -0.17900350689888, -0.019342321902513504], [-0.059247441589832306, -0.008152410387992859, -0.03912079334259033, -0.16346363723278046, 0.14286039769649506, 0.0962611511349678, 0.1264013797044754, 0.13217245042324066, -0.10669941455125809, -0.13564924895763397, -0.12730175256729126, 0.15054495632648468, 0.06815291196107864, 0.23212692141532898, -0.15807627141475677, -0.06368011236190796, 0.17488530278205872, -0.20262828469276428, -0.174533873796463, 0.04134649038314819, -0.1301378756761551, -0.04487522318959236, 0.11539597064256668, 0.12089439481496811, -0.05123022571206093, -0.08730310201644897, 0.10698086023330688, 0.26881247758865356], [-0.047575779259204865, -0.049034953117370605, -0.08128701895475388, -0.08027368038892746, 0.02114866115152836, 0.05442369729280472, 0.10278642177581787, -0.19746586680412292, -0.089576855301857, 0.10441205650568008, -0.0717717707157135, -0.048916712403297424, -0.13922008872032166, 0.39712926745414734, -0.11115336418151855, -0.17571237683296204, 0.14458109438419342, -0.19404447078704834, 0.1043509989976883, -0.05553608015179634, -0.002302334876731038, -0.04608409106731415, 0.02201475016772747, 0.13418962061405182, -0.009387589059770107, 0.029957283288240433, -0.07132075726985931, -0.07598622143268585], [-0.11873354762792587, 0.06860499829053879, -0.012090635485947132, 0.10193239897489548, 0.03992997854948044, -0.013963327743113041, -0.12689244747161865, 0.06897661089897156, -0.1646464765071869, -0.013291443698108196, 0.1472172737121582, 0.04850213974714279, 0.14449858665466309, 0.006060214247554541, -0.09970471262931824, -0.09866345673799515, -0.18231821060180664, 0.07244164496660233, 0.03394877165555954, -0.12611965835094452, 0.07054367661476135, -0.07584545016288757, 0.2286800742149353, -0.1525372564792633, 0.15780635178089142, 0.22428308427333832, 0.10452476143836975, 0.22023636102676392], [0.03346232697367668, -0.06843442469835281, -0.15685054659843445, 0.04161597415804863, 0.0718233585357666, 0.08060812950134277, -0.14181411266326904, 0.05293966457247734, 0.10998619347810745, 0.09223207831382751, 0.16070127487182617, -0.056446678936481476, 0.0024569870438426733, -0.06415901333093643, 0.21233531832695007, -0.08331122994422913, -0.011603058315813541, -0.20982873439788818, 0.08357089757919312, -0.028317054733633995, 0.08295122534036636, -0.07544635236263275, -0.09338594228029251, -0.0767771527171135, -0.11913436651229858, 0.08154304325580597, 0.0025454882998019457, -0.02366245910525322], [0.09262263029813766, 0.1328415721654892, -0.08431679010391235, -0.07408441603183746, 0.1983875185251236, -0.14130084216594696, -0.008368735201656818, -0.08033009618520737, 0.053929246962070465, -0.1844334751367569, 0.0008006410207599401, -0.09179425984621048, -0.12950527667999268, -0.05916448310017586, -0.1458248347043991, 0.04079297184944153, -0.10700097680091858, -0.04645175486803055, 0.08282827585935593, 0.12577925622463226, -0.07983841001987457, -0.08080866932868958, 0.07007689028978348, -0.010253897868096828, -0.12669530510902405, -0.21519847214221954, 0.01982283964753151, 0.13870340585708618], [-0.29759928584098816, -0.137643501162529, 0.03550722077488899, -0.1432250589132309, -0.13934475183486938, 0.15184727311134338, 0.12420384585857391, -0.16530238091945648, 0.01090474147349596, -0.17828267812728882, 0.08057891577482224, -0.1055622398853302, -0.15753772854804993, -0.1964348405599594, 0.006720299366861582, 0.1318741887807846, -0.14598508179187775, 0.018026301637291908, 0.09527993947267532, -0.0262052733451128, 0.01501845195889473, 0.04123736172914505, -0.03504953160881996, 0.07674380391836166, 0.06991709023714066, -0.024174416437745094, 0.18045195937156677, 0.186127170920372], [-0.057879552245140076, 0.0844740942120552, -0.05547429248690605, 0.14190909266471863, -0.08317811042070389, 0.1620999574661255, 0.17424865067005157, -0.12501217424869537, -0.2046288698911667, 0.06464692950248718, -0.1916843056678772, 0.022679176181554794, 0.09022016078233719, -0.09674356877803802, 0.22431203722953796, -0.07583506405353546, 0.012547384947538376, -0.04909535124897957, 0.08200477808713913, -0.1420295238494873, -0.06125785782933235, 0.0020913805346935987, -0.15700536966323853, 0.15862426161766052, 0.05361509323120117, 0.06791887432336807, 0.1181984692811966, -0.21163243055343628], [-0.14371082186698914, -0.16124920547008514, -0.14543455839157104, 0.09994399547576904, -0.12376668304204941, -0.18364356458187103, 0.018807711079716682, 0.0651828721165657, -0.02063310518860817, -0.23262488842010498, 0.020654022693634033, 0.12651371955871582, 0.09351140260696411, 0.01956140249967575, 0.28085988759994507, -0.16976475715637207, 0.20744091272354126, -0.12257472425699234, -0.15130119025707245, 0.10712389647960663, -0.0546630434691906, 0.11316356807947159, -0.11560861766338348, 0.12946301698684692, 0.1431131809949875, 0.1388438493013382, 0.15245084464550018, -0.052969224750995636], [-0.060447998344898224, 0.030044972896575928, 0.08799081295728683, -0.04176598787307739, 0.09071138501167297, 0.012437820434570312, -0.09593957662582397, 0.05534232035279274, -0.13302943110466003, -0.3388589918613434, 0.13683781027793884, 0.1522996872663498, 0.03378387168049812, -0.014467264525592327, -0.1821138709783554, -0.15204617381095886, 0.11122801899909973, -0.08549101650714874, 0.1513449102640152, 0.15451353788375854, 0.1211937665939331, -0.12118174135684967, -0.06696448475122452, -0.26946645975112915, 0.01974569261074066, -0.3059397041797638, -0.17397457361221313, -0.2552744150161743], [0.13432857394218445, 0.23580515384674072, 0.17830990254878998, 0.023224173113703728, -0.14749157428741455, -0.13642090559005737, -0.16783484816551208, -0.0022747504990547895, 0.09604507684707642, 0.062153708189725876, -0.14965695142745972, 0.001046032877638936, -0.07100015878677368, -0.07282654941082001, -0.15283718705177307, 0.05287984013557434, -0.18713219463825226, 0.15088681876659393, -0.09679535776376724, 0.04032759368419647, 0.11401787400245667, 0.07222181558609009, 0.14423252642154694, 0.08445502072572708, 0.11147826910018921, 0.08893337845802307, 0.12070272862911224, -0.03300977870821953], [-0.16606587171554565, 0.02335723489522934, 0.12202125787734985, 0.02604951709508896, -0.15810568630695343, 0.09399991482496262, 0.12137526273727417, -0.031160589307546616, 0.027884840965270996, 0.066107839345932, -0.19978752732276917, 0.00790052954107523, -0.12680384516716003, -0.1439618170261383, 0.13318003714084625, 0.1830732524394989, -0.0012405994348227978, 0.11275381594896317, -0.1971714347600937, 0.039514798671007156, -0.00932286772876978, -0.07159635424613953, -0.006932432297617197, 0.014093736186623573, -0.052832212299108505, 0.16387209296226501, 0.09073206782341003, 0.25547632575035095], [-0.06951693445444107, -0.08994937688112259, -0.08129163831472397, 0.13594897091388702, -0.13925515115261078, 0.016458671540021896, -0.1281387060880661, -0.25509676337242126, -0.10296552628278732, 0.19538232684135437, -0.06956709921360016, -0.003214266849681735, 0.023479977622628212, 0.13694238662719727, 0.314464807510376, -0.23759318888187408, 0.15323571860790253, -0.03655523061752319, 0.09236038476228714, 0.11063994467258453, 0.19812582433223724, -0.05673499032855034, -0.15754887461662292, 0.09752863645553589, 0.11159548908472061, -0.1458679437637329, -0.029904810711741447, -0.16074006259441376], [0.0258316807448864, -0.02574661560356617, 0.21885718405246735, -0.06408882141113281, -0.15421155095100403, -0.08921661972999573, -0.1657872051000595, -0.05261004716157913, 0.08119303733110428, -0.19010567665100098, -0.0026197927072644234, -0.18363834917545319, -0.20094209909439087, -0.12172388285398483, -0.058870621025562286, -0.12580294907093048, -0.020748157054185867, 0.1001744195818901, 0.0874166190624237, 0.07760122418403625, -0.017391102388501167, -0.02104230970144272, 0.13322119414806366, -0.15478751063346863, 0.1293599158525467, -0.12973451614379883, -0.14105075597763062, 0.10250826179981232], [-0.053930994123220444, -0.015267014503479004, 0.2539002001285553, 0.08384864032268524, 0.20610834658145905, -0.06589410454034805, -0.08630520850419998, -0.03697759658098221, 0.0012192927533760667, -0.07652364671230316, -0.10043301433324814, 0.17423495650291443, -0.13934414088726044, 0.15943461656570435, 0.13387373089790344, 0.14323963224887848, 0.0720190554857254, -0.0808502584695816, 0.06692672520875931, -0.12253019958734512, -0.09581295400857925, 0.14297719299793243, 0.09454911202192307, -0.08916673809289932, 0.1444232016801834, 0.1250375211238861, 0.04844118654727936, 0.2684803307056427], [-0.09495052695274353, -0.09348542243242264, 0.17369025945663452, -0.027655834332108498, -0.055487290024757385, -0.038381557911634445, 0.14961367845535278, 0.03367115929722786, -0.004039319232106209, 0.025829829275608063, 0.019539356231689453, -0.051832832396030426, 0.020480740815401077, -0.23555505275726318, 0.007981013506650925, -0.01935007981956005, -0.11118908226490021, 0.1422625035047531, -0.016080686822533607, 0.04707874357700348, -0.12127941101789474, 0.03543689101934433, 0.06133802607655525, 0.0894843339920044, -0.11671112477779388, 0.05250849947333336, -0.15343305468559265, 0.20488594472408295], [0.1474679857492447, 0.06454762816429138, 0.13955532014369965, 0.12243040651082993, 0.22515782713890076, 0.05167311802506447, 0.06625029444694519, 0.01154746487736702, -0.06436557322740555, -0.0015755665954202414, 0.13138402998447418, -0.10693923383951187, -0.09382211416959763, -0.07386544346809387, -0.09658823162317276, 0.12316801398992538, 0.14272475242614746, -0.06837572157382965, -0.010431969538331032, -0.07133639603853226, 0.09593630582094193, -0.039773888885974884, -0.05571029335260391, -0.12790076434612274, 0.1365126669406891, 0.09217865020036697, -0.10334601253271103, 0.08204831182956696], [-0.28744786977767944, -0.042655594646930695, 0.1820918172597885, 0.06511418521404266, 0.0776311457157135, -0.20960381627082825, -0.04652230441570282, 0.059459418058395386, -0.08515964448451996, -0.06515294313430786, 0.12808217108249664, 0.07119414210319519, 0.058701612055301666, -0.2829659581184387, 0.13333602249622345, -0.040946971625089645, 0.024895967915654182, 0.14833179116249084, -0.21525129675865173, -0.013839241117238998, -0.14758484065532684, 0.11268793791532516, 0.10221855342388153, 0.06603330373764038, -0.09978467971086502, 0.1571960598230362, -0.09809206426143646, 0.12241597473621368], [0.20339824259281158, -0.14717631042003632, -0.012808666564524174, -0.023689305409789085, 0.06509065628051758, 0.03950529173016548, 0.18934977054595947, -0.05742767080664635, 0.06230590119957924, 0.06914926320314407, -0.037807825952768326, 0.07514728605747223, 0.12020348012447357, 0.16518379747867584, -0.0554940365254879, 0.11292959749698639, -0.07913362979888916, 0.08168214559555054, -0.0042060487903654575, 0.13836491107940674, -0.11064263433218002, -0.016635028645396233, -0.15051347017288208, 0.10070955753326416, 0.12888965010643005, -0.1185661032795906, -0.01183153036981821, 0.0814054012298584], [0.17078548669815063, 0.12292341887950897, 0.24188636243343353, -0.008373767137527466, 0.06686753034591675, -0.12297049909830093, 0.09894724190235138, -0.0777587965130806, 0.14652059972286224, -0.022063298150897026, -0.020437132567167282, 0.1601419746875763, -0.18199095129966736, 0.19593988358974457, 0.05646577104926109, -0.04374025762081146, 0.07283832132816315, -0.18500486016273499, -0.08350103348493576, 0.05897755175828934, 0.07555601745843887, -0.12790147960186005, -0.006683137267827988, -0.07027089595794678, 0.13887223601341248, -0.1293105036020279, -0.04504110664129257, -0.05180893838405609], [-0.12159569561481476, -0.004239670000970364, -0.2770273685455322, 0.08255398273468018, -0.08937752991914749, 0.0031879942398518324, -0.13313978910446167, 0.032892655581235886, -0.1846592277288437, 0.19145897030830383, 0.14697334170341492, 0.05060328170657158, 0.005611730739474297, 0.13202941417694092, -0.12136499583721161, 0.11013490706682205, 0.10130233317613602, -0.015702320262789726, -0.07607382535934448, -0.12482345849275589, 0.0005352533189579844, -0.0827011838555336, -0.1201261356472969, 0.21966588497161865, 0.02875981293618679, 0.003637316171079874, -0.03326893970370293, 0.05332005023956299], [0.1034945398569107, 0.2406238615512848, 0.07119952887296677, -0.07774019241333008, 0.06347927451133728, -0.012695315293967724, -0.054860200732946396, 0.09182590991258621, -0.005877536255866289, -0.20687010884284973, 0.03755557909607887, 0.03810262680053711, -0.049085889011621475, -0.10096901655197144, -0.27734890580177307, 0.07480788975954056, -0.03743217885494232, 0.06808687746524811, -0.1401503086090088, -0.07417753338813782, -0.038965966552495956, -0.05299261584877968, 0.11013053357601166, -0.17026011645793915, 0.03981449455022812, -0.13740375638008118, 0.1749148666858673, 0.06798680871725082], [-0.06767955422401428, -0.15944735705852509, 0.05136694014072418, 0.25696733593940735, -0.0770341232419014, -0.04619823023676872, 0.0898284986615181, -0.08985883742570877, -0.0765969455242157, -0.060236312448978424, 0.024814236909151077, -0.04686742275953293, -0.12621179223060608, -0.16649584472179413, 0.24793441593647003, 0.06236853078007698, 0.17915205657482147, 0.03999007120728493, 0.055780842900276184, -0.21991552412509918, 0.0424031987786293, 0.17452040314674377, 0.06822465360164642, -0.09063690155744553, 0.1343543827533722, -0.15320424735546112, -0.022677239030599594, -0.02133343368768692], [-0.20097744464874268, -0.16579850018024445, -0.2065824717283249, 0.18905408680438995, -0.00808852817863226, 0.07388964295387268, -0.056597426533699036, 0.09713736921548843, 0.03865291550755501, 0.19225870072841644, 0.26245924830436707, -0.13854333758354187, -0.11039221286773682, 0.13716952502727509, 0.34667402505874634, -0.2641795575618744, 0.013904765248298645, -0.04901289939880371, 0.21796774864196777, 0.12318785488605499, 0.16472549736499786, 0.1295039802789688, -0.006121900398284197, 0.14018230140209198, -0.12125188112258911, 0.016494935378432274, -0.04972445219755173, -0.13103725016117096], [-0.0712258443236351, -0.0925508365035057, 0.06617890298366547, -0.041911978274583817, -0.009627323597669601, 0.059616412967443466, -0.07720981538295746, 0.05482543632388115, -0.11218612641096115, -0.07520820945501328, -0.22152675688266754, -0.09494276344776154, -0.12530609965324402, 0.2419993132352829, 0.28428518772125244, 0.048207756131887436, 0.12745578587055206, -0.1410183608531952, 0.037522632628679276, 0.08378869295120239, -0.10492487251758575, -0.14330431818962097, 0.029644574970006943, -0.042261745780706406, -0.20042142271995544, -0.060488246381282806, 0.13658298552036285, 0.10954540967941284], [-0.012348226271569729, -0.20457793772220612, 0.1747254580259323, -0.08080552518367767, 0.1582961529493332, -0.02946396917104721, -0.046659763902425766, 0.045296505093574524, -0.03335847705602646, -0.0960712805390358, 0.17067112028598785, -0.05841965228319168, 0.05892154946923256, -0.02506457082927227, -0.057591114193201065, 0.07223890721797943, 0.03574499115347862, -0.2634515166282654, 0.09001776576042175, -0.10590143501758575, 0.1180967316031456, -0.022652534767985344, 0.19973163306713104, -0.026955587789416313, -0.10346309095621109, 0.1323316991329193, -0.0058767907321453094, -0.03323286026716232], [0.17507806420326233, 0.12306735664606094, 0.07094265520572662, 0.1457594335079193, 0.02025466039776802, -0.07478822767734528, -0.16054925322532654, 0.04838559031486511, -0.03571178391575813, 0.08730498701334, -0.2277079075574875, 0.0565388984978199, -0.17151114344596863, 0.17339202761650085, 0.12830032408237457, 0.0676390528678894, -0.08456037193536758, -0.23154716193675995, -0.12346741557121277, -0.16069430112838745, 0.14130949974060059, -0.06875316798686981, 0.026270851492881775, 0.09351883828639984, -0.012573250569403172, -0.09167827665805817, -0.021467596292495728, 0.018615074455738068], [0.12104585766792297, -0.010644245892763138, -0.0032681997399777174, 0.13981594145298004, 0.0757991150021553, 0.05143467336893082, -0.03977156803011894, 0.11070539802312851, 0.10385645180940628, -0.07644166797399521, 0.06967318058013916, -0.1373164802789688, 0.0023703770712018013, 0.0904492661356926, -0.17921806871891022, -0.08477651327848434, 0.14532898366451263, 0.03442561998963356, 0.003179724793881178, -0.03756058216094971, -0.04329044744372368, 0.03250227868556976, -0.03870689496397972, -0.048728104680776596, 0.08751609921455383, -0.14923937618732452, -0.03485843166708946, 0.0275750532746315], [-0.07067891210317612, 0.12306492775678635, -0.20240814983844757, -0.020051151514053345, -0.08034225553274155, 0.1297503262758255, 0.1076454296708107, -0.0745861828327179, 0.05662994086742401, 0.04137146845459938, 0.12320806086063385, 0.035671018064022064, -0.0976494774222374, 0.1752929389476776, -0.05197889730334282, -0.08734174072742462, 0.055786605924367905, 0.19252051413059235, 0.09942653030157089, -0.14465785026550293, -0.08120856434106827, 0.13029812276363373, -0.050666362047195435, -0.037869300693273544, -0.07789447158575058, -0.19014644622802734, -0.10332512855529785, -0.04141204059123993], [0.12197170406579971, 0.089532770216465, 0.2106776088476181, 0.020555397495627403, 0.07022801041603088, 0.12319428473711014, -0.11073718965053558, 0.06512635201215744, -0.12825441360473633, 0.1473425179719925, -0.08727577328681946, 0.07926256954669952, -0.06933539360761642, 0.1755206137895584, 0.0640101283788681, -0.10371667146682739, 0.07851997017860413, 0.08272100239992142, -0.11778974533081055, -0.11521100997924805, -0.030142923817038536, -0.06975214183330536, -0.06379766762256622, -0.013567343354225159, -0.02995918318629265, 0.04457547888159752, 0.11727448552846909, 0.10500028729438782], [-0.15111501514911652, -0.04587769880890846, -0.022355975583195686, -0.1477629840373993, -0.12440800666809082, 0.021247467026114464, -0.1649845838546753, 0.1035684198141098, 0.15196509659290314, -0.24993976950645447, -0.048326071351766586, -0.07719545066356659, 0.007597698830068111, -0.04582960903644562, -0.1722629815340042, 0.13827472925186157, 0.04505455866456032, -0.2489236742258072, -0.10969528555870056, -0.06411293148994446, -0.030090797692537308, 0.06645965576171875, 0.04414193704724312, -0.19097568094730377, 0.07779904454946518, -0.09519007802009583, -0.06490273773670197, 0.15117955207824707], [0.13731810450553894, 0.2662784457206726, -0.03295814245939255, -0.01954697258770466, -0.12295424938201904, -0.016117293387651443, -0.10288252681493759, 0.036402855068445206, -0.13335895538330078, 0.11440514028072357, 0.044858384877443314, 0.00019326510664541274, -0.054378245025873184, 0.1881612092256546, -0.31188544631004333, -0.11118736863136292, 0.02558443695306778, 0.15385772287845612, 0.1192808523774147, -0.14687639474868774, 0.07509634643793106, -0.16305029392242432, -0.13920432329177856, 0.024474266916513443, -0.031091822311282158, -0.28919148445129395, -0.16776567697525024, 0.0415131151676178], [0.03530852124094963, -0.05171725153923035, 0.03743445873260498, -0.18384090065956116, -0.13175559043884277, -0.1004941537976265, -0.19072666764259338, 0.09166661649942398, -0.06445566564798355, 0.03235179930925369, -0.15022367238998413, 0.05430132895708084, -0.0965072438120842, -0.12810102105140686, 0.06305672228336334, 0.11618924885988235, -0.16295388340950012, 0.024955429136753082, -0.15018494427204132, -0.04069429636001587, 0.10808608680963516, -0.03719615191221237, 0.17445993423461914, 0.15545830130577087, -0.13321778178215027, -0.10734179615974426, -0.18724359571933746, 0.06809107214212418], [-0.13199535012245178, -0.06478321552276611, -0.1717115342617035, -0.08986322581768036, -0.057633399963378906, 0.10229706764221191, 0.09816480427980423, 0.15691165626049042, -0.06782565265893936, -0.22120632231235504, -0.07372334599494934, 0.0616314522922039, -0.10616666078567505, 0.061155110597610474, -0.19450415670871735, -0.09902626276016235, 0.12681975960731506, -0.01877947337925434, 0.10033292323350906, -0.14905501902103424, -0.07066689431667328, -0.07317280769348145, -0.032242607325315475, -0.15594510734081268, -0.16973833739757538, -0.28534364700317383, -0.07007326185703278, -0.07796543091535568], [-0.051265645772218704, -0.23531045019626617, 0.2956062853336334, 0.1749585121870041, -0.11172734946012497, 0.06477855145931244, 0.12121116369962692, -0.19154761731624603, -0.13179686665534973, 0.10020650178194046, -0.00877189077436924, 0.020563654601573944, -0.10364171862602234, 0.0717557966709137, 0.1107739731669426, -0.06844072043895721, -0.0921386182308197, -0.21206128597259521, -0.049361132085323334, 0.10053664445877075, -0.1767127513885498, -0.048110589385032654, 0.10500864684581757, -0.03354419767856598, -0.033395759761333466, -0.007695629261434078, -0.07656749337911606, 0.07186995446681976], [-0.30828341841697693, 0.1404532939195633, 0.07963838428258896, -0.10057093948125839, -0.0492902435362339, 0.09286170452833176, -0.14187924563884735, -0.17770040035247803, -0.10399738699197769, -0.1582641750574112, -0.08024372905492783, 0.14108139276504517, -0.17616818845272064, -0.2262740135192871, -0.2911866009235382, -0.07366006076335907, -0.054716434329748154, -0.13267982006072998, -0.005263305734843016, 0.045796774327754974, -0.042159661650657654, 0.024123869836330414, 0.04339618608355522, 0.18410004675388336, -0.011383539997041225, 0.24001668393611908, 0.14145182073116302, 0.16684478521347046], [0.12125586718320847, -0.20427066087722778, -0.13505612313747406, 0.1389753222465515, 0.04618672654032707, 0.14049042761325836, -0.023507609963417053, -0.03513895347714424, 0.11077339202165604, 0.01250291708856821, 0.17421412467956543, -0.10774948447942734, -0.09003559499979019, 0.033058807253837585, 0.2258884459733963, -0.1542060375213623, -0.03379557654261589, 0.1411600559949875, 0.05957916006445885, 0.1495739221572876, -0.049160994589328766, -0.09395723789930344, -0.11529948562383652, -0.09773477166891098, -0.09913713485002518, 0.13551738858222961, 0.05079567804932594, -0.07863102108240128], [0.2147410660982132, 0.10514166951179504, 0.019525282084941864, -0.04128014296293259, 0.12381470203399658, -0.1434139460325241, 0.13229981064796448, -0.10119934380054474, 0.06891155987977982, -0.12206538766622543, 0.15710322558879852, -0.1514768898487091, -0.0032121618278324604, 0.024097057059407234, -0.1987072229385376, -0.11095104366540909, -0.0512266680598259, 0.06684836000204086, 